{"learner":{"attributes":{"scikit_learn":"{\"_estimator_type\": \"classifier\"}"},"feature_names":["age","tenure_days","calls_min_30d","sms_count_30d","data_gb_30d","night_usage_pct","last_recharge_days_ago","avg_recharge_amount_npr","recharge_count_30d","signal_strength_dbm","call_drop_rate","avg_data_speed_mbps","num_complaints_30d","avg_resolution_time_hours","usage_drop_pct","recharge_drop_pct","inactive_days","gender_Female","gender_Male","gender_Other","province_Bagmati","province_Gandaki","province_Karnali","province_Koshi","province_Lumbini","province_Madhesh","province_Sudurpashchim","district_type_Rural","district_type_Semi-Urban","district_type_Urban","sim_type_Postpaid","sim_type_Prepaid","data_pack_active","voice_pack_active","vas_active","roaming_active"],"feature_types":["float","float","float","float","float","float","float","float","float","float","float","float","float","float","float","float","float","float","float","float","float","float","float","float","float","float","float","float","float","float","float","float","float","float","float","float"],"gradient_booster":{"model":{"cats":{"enc":[],"feature_segments":[],"sorted_idx":[]},"gbtree_model_param":{"num_parallel_tree":"1","num_trees":"300"},"iteration_indptr":[0,1,2,3,4,5,6,7,8,9,10,11,12,13,14,15,16,17,18,19,20,21,22,23,24,25,26,27,28,29,30,31,32,33,34,35,36,37,38,39,40,41,42,43,44,45,46,47,48,49,50,51,52,53,54,55,56,57,58,59,60,61,62,63,64,65,66,67,68,69,70,71,72,73,74,75,76,77,78,79,80,81,82,83,84,85,86,87,88,89,90,91,92,93,94,95,96,97,98,99,100,101,102,103,104,105,106,107,108,109,110,111,112,113,114,115,116,117,118,119,120,121,122,123,124,125,126,127,128,129,130,131,132,133,134,135,136,137,138,139,140,141,142,143,144,145,146,147,148,149,150,151,152,153,154,155,156,157,158,159,160,161,162,163,164,165,166,167,168,169,170,171,172,173,174,175,176,177,178,179,180,181,182,183,184,185,186,187,188,189,190,191,192,193,194,195,196,197,198,199,200,201,202,203,204,205,206,207,208,209,210,211,212,213,214,215,216,217,218,219,220,221,222,223,224,225,226,227,228,229,230,231,232,233,234,235,236,237,238,239,240,241,242,243,244,245,246,247,248,249,250,251,252,253,254,255,256,257,258,259,260,261,262,263,264,265,266,267,268,269,270,271,272,273,274,275,276,277,278,279,280,281,282,283,284,285,286,287,288,289,290,291,292,293,294,295,296,297,298,299,300],"tree_info":[0,0,0,0,0,0,0,0,0,0,0,0,0,0,0,0,0,0,0,0,0,0,0,0,0,0,0,0,0,0,0,0,0,0,0,0,0,0,0,0,0,0,0,0,0,0,0,0,0,0,0,0,0,0,0,0,0,0,0,0,0,0,0,0,0,0,0,0,0,0,0,0,0,0,0,0,0,0,0,0,0,0,0,0,0,0,0,0,0,0,0,0,0,0,0,0,0,0,0,0,0,0,0,0,0,0,0,0,0,0,0,0,0,0,0,0,0,0,0,0,0,0,0,0,0,0,0,0,0,0,0,0,0,0,0,0,0,0,0,0,0,0,0,0,0,0,0,0,0,0,0,0,0,0,0,0,0,0,0,0,0,0,0,0,0,0,0,0,0,0,0,0,0,0,0,0,0,0,0,0,0,0,0,0,0,0,0,0,0,0,0,0,0,0,0,0,0,0,0,0,0,0,0,0,0,0,0,0,0,0,0,0,0,0,0,0,0,0,0,0,0,0,0,0,0,0,0,0,0,0,0,0,0,0,0,0,0,0,0,0,0,0,0,0,0,0,0,0,0,0,0,0,0,0,0,0,0,0,0,0,0,0,0,0,0,0,0,0,0,0,0,0,0,0,0,0,0,0,0,0,0,0,0,0,0,0,0,0,0,0,0,0,0,0,0,0,0,0,0,0],"trees":[{"base_weights":[2.2426656E-2,-4.5665064E-1,1.2104256E0,1.6026407E-1,-9.769285E-1,1.4399327E0,7.009032E-1,-1.0928717E-1,1.10247E0,-1.091608E0,7.043614E-1,1.5628033E0,9.9445033E-1,9.397394E-1,-2.9119638E-1,2.8914452E-1,-7.281178E-1,1.1683493E0,-6.7721725E-1,-7.5519776E-1,-1.2621547E0,1.0044327E0,-1.0088933E0,-5.946478E-4,1.5757546E0,1.0974507E0,-6.7721725E-1,4.088605E-1,1.1806594E0,-1.145185E0,3.0909914E-1,2.5680637E-2,-9.682208E-3,-5.821343E-2,-9.564395E-3,6.799295E-2,4.072993E-2,-6.0000002E-2,1.0523416E-2,-2.4484864E-2,-6.024135E-2,-6.958417E-2,-2.3531845E-2,-1.2800159E-2,6.652336E-2,1.0523416E-2,-7.333334E-2,8.038843E-2,3.9770734E-2,-5E-2,5.797205E-2,1.0523416E-2,-6.0000002E-2,5.705769E-2,-8.173111E-3,6.5945655E-2,2.7138585E-2,5.9521437E-2,-8.709677E-2,3.8338035E-2,-6.923077E-2],"categories":[],"categories_nodes":[],"categories_segments":[],"categories_sizes":[],"default_left":[0,0,0,0,0,0,0,0,0,0,0,0,0,0,0,0,0,0,0,0,0,0,0,0,0,0,0,0,0,0,0,0,0,0,0,0,0,0,0,0,0,0,0,0,0,0,0,0,0,0,0,0,0,0,0,0,0,0,0,0,0],"id":0,"left_children":[1,3,5,7,9,11,13,15,17,19,21,23,25,27,29,31,33,35,37,39,41,43,45,-1,47,49,51,53,55,57,59,-1,-1,-1,-1,-1,-1,-1,-1,-1,-1,-1,-1,-1,-1,-1,-1,-1,-1,-1,-1,-1,-1,-1,-1,-1,-1,-1,-1,-1,-1],"loss_changes":[6.7975806E2,2.7335056E2,3.912686E1,9.92393E1,8.982483E1,1.1346527E1,2.5991402E1,7.525609E1,1.0980385E1,2.3877258E1,1.648824E1,3.7506409E0,9.98975E0,1.073587E1,1.1541265E1,2.024253E1,2.7756008E1,4.5945053E0,1.9859537E0,1.708776E1,2.8636292E1,1.1072756E1,3.0913944E0,0E0,3.255249E0,7.786213E0,1.9859537E0,1.2302994E1,4.5582886E0,1.4924907E1,1.16054E1,0E0,0E0,0E0,0E0,0E0,0E0,0E0,0E0,0E0,0E0,0E0,0E0,0E0,0E0,0E0,0E0,0E0,0E0,0E0,0E0,0E0,0E0,0E0,0E0,0E0,0E0,0E0,0E0,0E0,0E0],"parents":[2147483647,0,0,1,1,2,2,3,3,4,4,5,5,6,6,7,7,8,8,9,9,10,10,11,11,12,12,13,13,14,14,15,15,16,16,17,17,18,18,19,19,20,20,21,21,22,22,24,24,25,25,26,26,27,27,28,28,29,29,30,30],"right_children":[2,4,6,8,10,12,14,16,18,20,22,24,26,28,30,32,34,36,38,40,42,44,46,-1,48,50,52,54,56,58,60,-1,-1,-1,-1,-1,-1,-1,-1,-1,-1,-1,-1,-1,-1,-1,-1,-1,-1,-1,-1,-1,-1,-1,-1,-1,-1,-1,-1,-1,-1],"split_conditions":[7.328489E-1,-2.4579157E-1,1.7402856E-1,1.3998075E-1,2.6835632E0,7.96596E-1,9.717517E-1,1.6019693E-1,1.6373434E0,-5.676724E-1,1.1274457E0,-6.77964E-1,7.543224E-1,1.4461995E0,4.1647124E-1,-3.797812E-1,-2.240382E-1,-8.755218E-1,-3.5582265E-1,1.0136689E0,7.36726E-1,-5.16046E-1,-1.1934319E0,-5.946478E-4,2.0503485E0,8.257886E-1,1.0515449E0,-9.977769E-1,-9.952315E-2,-6.9647527E-1,-3.8874355E-1,2.5680637E-2,-9.682208E-3,-5.821343E-2,-9.564395E-3,6.799295E-2,4.072993E-2,-6.0000002E-2,1.0523416E-2,-2.4484864E-2,-6.024135E-2,-6.958417E-2,-2.3531845E-2,-1.2800159E-2,6.652336E-2,1.0523416E-2,-7.333334E-2,8.038843E-2,3.9770734E-2,-5E-2,5.797205E-2,1.0523416E-2,-6.0000002E-2,5.705769E-2,-8.173111E-3,6.5945655E-2,2.7138585E-2,5.9521437E-2,-8.709677E-2,3.8338035E-2,-6.923077E-2],"split_indices":[16,9,9,13,12,1,1,1,1,1,1,10,11,16,6,11,6,9,4,9,6,4,2,0,10,1,1,1,10,7,10,0,0,0,0,0,0,0,0,0,0,0,0,0,0,0,0,0,0,0,0,0,0,0,0,0,0,0,0,0,0],"split_type":[0,0,0,0,0,0,0,0,0,0,0,0,0,0,0,0,0,0,0,0,0,0,0,0,0,0,0,0,0,0,0,0,0,0,0,0,0,0,0,0,0,0,0,0,0,0,0,0,0,0,0,0,0,0,0,0,0,0,0,0,0],"sum_hessian":[1.1923818E3,8.501589E2,3.422229E2,3.892734E2,4.6088547E2,2.3468596E2,1.0753695E2,3.0336823E2,8.5905174E1,4.317845E2,2.9100985E1,1.81984E2,5.270197E1,8.671429E1,2.082266E1,1.8487192E2,1.1849631E2,8.316995E1,2.7352216E0,1.4708374E2,2.8470074E2,2.5115765E1,3.9852216E0,1.4852216E0,1.8049876E2,4.996675E1,2.7352216E0,2.7910099E1,5.8804188E1,8.220444E0,1.2602217E1,1.2615394E2,5.871798E1,6.473399E1,5.3762314E1,5.21133E1,3.105665E1,1.5E0,1.2352216E0,9.379064E1,5.3293102E1,2.4401108E2,4.0689655E1,5.205665E0,1.9910099E1,1.2352216E0,2.75E0,1.72367E2,8.131773E0,1E0,4.896675E1,1.2352216E0,1.5E0,1.1807882E1,1.6102217E1,4.745197E1,1.1352217E1,1.4704434E0,6.75E0,1.0352217E1,2.25E0],"tree_param":{"num_deleted":"0","num_feature":"36","num_nodes":"61","size_leaf_vector":"1"}},{"base_weights":[9.2386585E-3,-4.4675177E-1,1.1966465E0,1.9278175E-1,-9.9792206E-1,1.4608365E0,8.776133E-1,-8.318623E-2,1.1578125E0,-1.1255732E0,6.7530936E-1,1.1370838E0,1.6509908E0,2.881673E-1,1.1290702E0,-6.121493E-1,4.551015E-1,1.2533768E0,1.6281511E-1,-1.2926676E0,-5.154256E-1,1.1212217E0,-2.785177E-1,1.3796086E0,1.9306487E-1,1.6787767E0,5.501528E-1,1.2161721E0,-4.244226E-2,1.2790831E0,3.8745737E-1,-1.4576401E-2,-5.337857E-2,-9.437872E-4,3.532479E-2,6.6795036E-2,1.7819175E-2,3.037606E-2,-6.1017793E-2,-7.3176384E-2,-5.350561E-2,5.6549865E-3,-4.490096E-2,-7.2984546E-3,6.680839E-2,2.425683E-2,-5.5942085E-2,7.185348E-2,-1.2241402E-2,4.2837843E-2,-7.9782926E-2,8.474135E-2,8.310823E-3,5.9582423E-2,-1.1524825E-2,-2.5904197E-3,6.974329E-2,9.82665E-3,-5.96079E-2,7.21704E-2,3.966255E-2,-1.3804446E-2,7.7786885E-2],"categories":[],"categories_nodes":[],"categories_segments":[],"categories_sizes":[],"default_left":[0,0,0,0,0,0,0,0,0,0,0,0,0,0,0,0,0,0,0,0,0,0,0,0,0,0,0,0,0,0,0,0,0,0,0,0,0,0,0,0,0,0,0,0,0,0,0,0,0,0,0,0,0,0,0,0,0,0,0,0,0,0,0],"id":1,"left_children":[1,3,5,7,9,11,13,15,17,19,21,23,25,27,29,31,33,35,37,39,41,43,45,47,49,51,53,55,57,59,61,-1,-1,-1,-1,-1,-1,-1,-1,-1,-1,-1,-1,-1,-1,-1,-1,-1,-1,-1,-1,-1,-1,-1,-1,-1,-1,-1,-1,-1,-1,-1,-1],"loss_changes":[6.424745E2,3.0240594E2,2.6467926E1,1.0601264E2,9.915161E1,9.117523E0,2.2151344E1,8.860301E1,8.211761E0,4.3007935E1,1.4465972E1,1.5598724E1,2.4501953E0,1.4376177E1,1.1292053E1,2.2596264E1,1.8401144E1,5.490341E0,6.218938E0,1.1196167E1,2.2647457E1,6.425766E0,7.8597574E0,5.48275E0,1.9562054E1,2.3182373E0,2.3794272E0,2.8587246E0,9.958164E0,5.856003E0,1.5360886E1,0E0,0E0,0E0,0E0,0E0,0E0,0E0,0E0,0E0,0E0,0E0,0E0,0E0,0E0,0E0,0E0,0E0,0E0,0E0,0E0,0E0,0E0,0E0,0E0,0E0,0E0,0E0,0E0,0E0,0E0,0E0,0E0],"parents":[2147483647,0,0,1,1,2,2,3,3,4,4,5,5,6,6,7,7,8,8,9,9,10,10,11,11,12,12,13,13,14,14,15,15,16,16,17,17,18,18,19,19,20,20,21,21,22,22,23,23,24,24,25,25,26,26,27,27,28,28,29,29,30,30],"right_children":[2,4,6,8,10,12,14,16,18,20,22,24,26,28,30,32,34,36,38,40,42,44,46,48,50,52,54,56,58,60,62,-1,-1,-1,-1,-1,-1,-1,-1,-1,-1,-1,-1,-1,-1,-1,-1,-1,-1,-1,-1,-1,-1,-1,-1,-1,-1,-1,-1,-1,-1,-1,-1],"split_conditions":[7.328489E-1,-2.4579157E-1,-2.982691E-1,2.0324174E-1,2.6835632E0,4.5108283E-1,1.4461995E0,1.518004E-1,-5.1011786E-2,6.6586196E-1,2.5555947E-1,7.8491896E-1,1.5536579E0,-1.2235332E0,1.0242984E0,1.6019693E-1,-1.2788695E-1,6.7931634E-1,6.587032E-1,-2.6522547E-1,-5.268027E-1,-5.610506E-1,-7.499429E-1,4.043917E-1,-5.241166E-1,1.6971143E0,2.4847229E-1,1.2155105E-1,8.679338E-1,1.6807835E-1,1.0954201E0,-1.4576401E-2,-5.337857E-2,-9.437872E-4,3.532479E-2,6.6795036E-2,1.7819175E-2,3.037606E-2,-6.1017793E-2,-7.3176384E-2,-5.350561E-2,5.6549865E-3,-4.490096E-2,-7.2984546E-3,6.680839E-2,2.425683E-2,-5.5942085E-2,7.185348E-2,-1.2241402E-2,4.2837843E-2,-7.9782926E-2,8.474135E-2,8.310823E-3,5.9582423E-2,-1.1524825E-2,-2.5904197E-3,6.974329E-2,9.82665E-3,-5.96079E-2,7.21704E-2,3.966255E-2,-1.3804446E-2,7.7786885E-2],"split_indices":[16,9,9,13,12,15,16,14,11,15,1,1,1,1,1,1,15,7,2,14,1,7,2,15,7,0,0,9,11,5,15,0,0,0,0,0,0,0,0,0,0,0,0,0,0,0,0,0,0,0,0,0,0,0,0,0,0,0,0,0,0,0,0],"split_type":[0,0,0,0,0,0,0,0,0,0,0,0,0,0,0,0,0,0,0,0,0,0,0,0,0,0,0,0,0,0,0,0,0,0,0,0,0,0,0,0,0,0,0,0,0,0,0,0,0,0,0,0,0,0,0,0,0,0,0,0,0,0,0],"sum_hessian":[1.1846016E3,8.5636316E2,3.2823834E2,3.9670682E2,4.5965637E2,1.7759427E2,1.5064407E2,3.0919943E2,8.750737E1,4.2737888E2,3.2277496E1,6.829551E1,1.0929875E2,4.568912E1,1.04954956E2,1.5588127E2,1.5331818E2,7.96023E1,7.9050646E0,3.3462115E2,9.2757706E1,2.1875324E1,1.040217E1,5.3969067E1,1.4326441E1,1.06095825E2,3.2029293E0,1.1297898E1,3.4391224E1,8.6693855E1,1.8261103E1,9.244164E1,6.3439625E1,5.345651E1,9.9861664E1,7.244777E1,7.1545405E0,6.406178E0,1.4988868E0,1.8614111E2,1.4848006E2,3.5364777E1,5.7392933E1,3.2189965E0,1.8656328E1,5.671137E0,4.731033E0,5.2236645E1,1.7324213E0,1.0829327E1,3.4971147E0,1.04862595E2,1.2332282E0,1.4691647E0,1.7337646E0,1.4832282E0,9.81467E0,2.915934E1,5.2318826E0,6.330946E1,2.3384394E1,1.2133396E1,6.1277065E0],"tree_param":{"num_deleted":"0","num_feature":"36","num_nodes":"63","size_leaf_vector":"1"}},{"base_weights":[3.259359E-3,-4.1149095E-1,1.0799235E0,1.943464E-1,-9.289442E-1,1.2622409E0,4.3689892E-1,-5.7148535E-2,1.1579088E0,-1.0254201E0,4.4123814E-1,1.3543422E0,4.6701914E-1,-6.0372645E-1,9.8773307E-1,5.617924E-1,-4.580835E-1,1.5035158E0,8.6808395E-1,-1.3343506E0,-8.0533177E-1,8.526577E-1,-5.657771E-1,1.5208933E0,1.1134218E0,-5.6099814E-1,7.7995133E-1,-3.013305E-1,-8.226026E-2,1.2539494E0,1.5501714E-1,-3.8954956E-3,4.3137975E-2,-4.57914E-2,-1.5680346E-3,7.8604266E-2,-3.0760597E-3,4.820521E-2,-6.1764807E-2,-7.112568E-2,-4.0409733E-2,-1.8234251E-2,-5.220566E-2,-5.7589807E-2,5.1181436E-2,-6.1618686E-2,3.558278E-2,7.690271E-2,1.715254E-2,1.6366564E-2,6.231907E-2,-7.5592875E-2,2.3960782E-2,5.68147E-2,6.0785846E-3,-2.8377531E-2,3.6208834E-2,6.8099104E-2,1.0693486E-2,5.056525E-2,-4.0499926E-2],"categories":[],"categories_nodes":[],"categories_segments":[],"categories_sizes":[],"default_left":[0,0,0,0,0,0,0,0,0,0,0,0,0,0,0,0,0,0,0,0,0,0,0,0,0,0,0,0,0,0,0,0,0,0,0,0,0,0,0,0,0,0,0,0,0,0,0,0,0,0,0,0,0,0,0,0,0,0,0,0,0],"id":2,"left_children":[1,3,5,7,9,11,13,15,17,19,21,23,25,27,29,31,33,35,37,39,41,43,45,47,49,51,53,55,-1,57,59,-1,-1,-1,-1,-1,-1,-1,-1,-1,-1,-1,-1,-1,-1,-1,-1,-1,-1,-1,-1,-1,-1,-1,-1,-1,-1,-1,-1,-1,-1],"loss_changes":[5.3304803E2,2.703344E2,3.8365753E1,9.646594E1,6.191452E1,1.8271118E1,4.3506496E1,7.8777855E1,6.9469376E0,2.8479553E1,1.3443363E1,7.5670166E0,9.546947E0,7.8598356E0,1.0740852E1,2.4102486E1,3.758746E1,3.9825592E0,1.0718685E1,7.168213E0,2.6592575E1,8.927046E0,9.115576E0,2.1752014E0,9.841545E0,7.8358583E0,5.0529766E0,6.3585796E0,0E0,3.8928108E0,1.1636538E1,0E0,0E0,0E0,0E0,0E0,0E0,0E0,0E0,0E0,0E0,0E0,0E0,0E0,0E0,0E0,0E0,0E0,0E0,0E0,0E0,0E0,0E0,0E0,0E0,0E0,0E0,0E0,0E0,0E0,0E0],"parents":[2147483647,0,0,1,1,2,2,3,3,4,4,5,5,6,6,7,7,8,8,9,9,10,10,11,11,12,12,13,13,14,14,15,15,16,16,17,17,18,18,19,19,20,20,21,21,22,22,23,23,24,24,25,25,26,26,27,27,29,29,30,30],"right_children":[2,4,6,8,10,12,14,16,18,20,22,24,26,28,30,32,34,36,38,40,42,44,46,48,50,52,54,56,-1,58,60,-1,-1,-1,-1,-1,-1,-1,-1,-1,-1,-1,-1,-1,-1,-1,-1,-1,-1,-1,-1,-1,-1,-1,-1,-1,-1,-1,-1,-1,-1],"split_conditions":[7.328489E-1,-2.4579157E-1,7.96596E-1,1.6719476E0,2.6835632E0,9.611913E-1,3.5770062E-1,-5.7740325E-1,-1.1379094E0,-4.5586586E-1,3.4119117E-1,-3.507466E-1,-1.2621686E-1,9.959247E-1,2.789836E-1,-2.3345208E-1,6.839522E-2,-6.0060486E-2,1.4329951E0,6.6586196E-1,-5.676724E-1,-9.236639E-1,1E0,7.724198E-1,1.208416E0,1.6839831E0,2.043626E-1,1.7603288E0,-8.226026E-2,1E0,1.187777E0,-3.8954956E-3,4.3137975E-2,-4.57914E-2,-1.5680346E-3,7.8604266E-2,-3.0760597E-3,4.820521E-2,-6.1764807E-2,-7.112568E-2,-4.0409733E-2,-1.8234251E-2,-5.220566E-2,-5.7589807E-2,5.1181436E-2,-6.1618686E-2,3.558278E-2,7.690271E-2,1.715254E-2,1.6366564E-2,6.231907E-2,-7.5592875E-2,2.3960782E-2,5.68147E-2,6.0785846E-3,-2.8377531E-2,3.6208834E-2,6.8099104E-2,1.0693486E-2,5.056525E-2,-4.0499926E-2],"split_indices":[16,9,1,12,12,9,15,1,9,14,1,9,14,5,9,14,14,11,1,15,1,5,25,11,16,16,11,14,0,21,1,0,0,0,0,0,0,0,0,0,0,0,0,0,0,0,0,0,0,0,0,0,0,0,0,0,0,0,0,0,0],"split_type":[0,0,0,0,0,0,0,0,0,0,0,0,0,0,0,0,0,0,0,0,0,0,0,0,0,0,0,0,0,0,0,0,0,0,0,0,0,0,0,0,0,0,0,0,0,0,0,0,0,0,0,0,0,0,0,0,0,0,0,0,0],"sum_hessian":[1.1917163E3,8.607557E2,3.3096066E2,3.9680194E2,4.639537E2,2.571015E2,7.385917E1,3.1541708E2,8.138485E1,4.3367017E2,3.0283537E1,2.2978505E2,2.731645E1,2.5530817E1,4.8328354E1,1.2383947E2,1.9157762E2,3.5210163E1,4.617469E1,1.7831403E2,2.5535614E2,2.1608564E1,8.674972E0,1.3272076E2,9.706428E1,6.1897416E0,2.1126707E1,2.0785131E1,4.745685E0,3.62375E1,1.2090856E1,3.9859554E1,8.397991E1,9.1876144E1,9.970148E1,3.372793E1,1.4822353E0,4.4676815E1,1.4978766E0,1.512645E2,2.7049534E1,9.0631744E1,1.647244E2,1.2473947E0,2.036117E1,5.7235513E0,2.95142E0,1.305134E2,2.2073734E0,1.4543188E1,8.252109E1,2.9968817E0,3.1928601E0,1.3236608E1,7.8901005E0,1.6855925E1,3.9292066E0,3.2547325E1,3.6901746E0,6.380911E0,5.7099442E0],"tree_param":{"num_deleted":"0","num_feature":"36","num_nodes":"61","size_leaf_vector":"1"}},{"base_weights":[3.084247E-2,-3.6688256E-1,1.0759305E0,1.9974999E-1,-8.690718E-1,1.3023249E0,6.147715E-1,-3.3765506E-2,1.0131346E0,-9.954042E-1,7.637875E-1,4.3389255E-1,1.3416587E0,7.62516E-1,-3.352881E-1,-6.357746E-1,2.818559E-1,-7.842458E-1,1.0772897E0,-1.1208549E0,-4.969675E-1,2.0550574E-1,1.3908707E0,-6.527777E-2,9.0082455E-1,1.3776479E0,5.256864E-1,8.4550714E-1,-7.0115817E-1,-1.247918E0,4.467476E-1,-1.523182E-2,-5.7258468E-2,3.8043093E-2,2.6553447E-5,-6.510072E-2,7.261362E-3,5.6108195E-2,-5.7131525E-2,-5.9032597E-2,-7.234041E-4,5.5337823E-3,-4.018584E-2,3.010354E-2,-7.171955E-2,7.744085E-2,-3.856796E-3,-1.5618316E-2,6.086793E-2,6.4357854E-2,8.4973834E-2,4.7225628E-2,-5.9804913E-2,4.5532845E-2,-4.0902164E-2,-7.542096E-2,2.7820537E-2,1.0876426E-2,-7.8635305E-2,-6.532457E-2,5.6047916E-2],"categories":[],"categories_nodes":[],"categories_segments":[],"categories_sizes":[],"default_left":[0,0,0,0,0,0,0,0,0,0,0,0,0,0,0,0,0,0,0,0,0,0,0,0,0,0,0,0,0,0,0,0,0,0,0,0,0,0,0,0,0,0,0,0,0,0,0,0,0,0,0,0,0,0,0,0,0,0,0,0,0],"id":3,"left_children":[1,3,5,7,9,11,13,15,17,19,21,23,25,27,29,31,33,35,37,39,41,43,45,-1,47,49,51,53,55,57,59,-1,-1,-1,-1,-1,-1,-1,-1,-1,-1,-1,-1,-1,-1,-1,-1,-1,-1,-1,-1,-1,-1,-1,-1,-1,-1,-1,-1,-1,-1],"loss_changes":[4.9797952E2,2.4712772E2,3.3678345E1,7.7638596E1,9.5707794E1,6.9536743E0,1.578524E1,6.0679405E1,1.1357483E1,2.6184082E1,1.1484037E1,1.014047E1,5.459503E0,1.2260464E1,1.1680103E1,1.8176476E1,2.8242514E1,1.9796634E0,1.0093002E1,2.2534393E1,1.6452427E1,1.3193048E1,3.7506752E0,0E0,3.9489527E0,3.6679077E0,8.71039E0,1.0645607E1,6.6265078E0,3.8905077E0,1.2255437E1,0E0,0E0,0E0,0E0,0E0,0E0,0E0,0E0,0E0,0E0,0E0,0E0,0E0,0E0,0E0,0E0,0E0,0E0,0E0,0E0,0E0,0E0,0E0,0E0,0E0,0E0,0E0,0E0,0E0,0E0],"parents":[2147483647,0,0,1,1,2,2,3,3,4,4,5,5,6,6,7,7,8,8,9,9,10,10,11,11,12,12,13,13,14,14,15,15,16,16,17,17,18,18,19,19,20,20,21,21,22,22,24,24,25,25,26,26,27,27,28,28,29,29,30,30],"right_children":[2,4,6,8,10,12,14,16,18,20,22,24,26,28,30,32,34,36,38,40,42,44,46,-1,48,50,52,54,56,58,60,-1,-1,-1,-1,-1,-1,-1,-1,-1,-1,-1,-1,-1,-1,-1,-1,-1,-1,-1,-1,-1,-1,-1,-1,-1,-1,-1,-1,-1,-1],"split_conditions":[7.328489E-1,-2.4579157E-1,1.7402856E-1,1.3998075E-1,2.6835632E0,-6.1870456E-1,1.187777E0,-2.8111216E-1,-1.3337349E0,7.1722215E-1,3.6951787E0,2.1778722E0,2.202844E0,8.549042E-1,4.1647124E-1,1.6019693E-1,-6.455193E-1,-7.180892E-1,2.1790156E0,1.3772354E0,3.3146113E-1,7.0707196E-1,1.2142336E0,-6.527777E-2,-7.3594904E-1,1.6719476E0,1.152746E0,2.255167E0,2.3973336E0,-5.9182894E-1,1E0,-1.523182E-2,-5.7258468E-2,3.8043093E-2,2.6553447E-5,-6.510072E-2,7.261362E-3,5.6108195E-2,-5.7131525E-2,-5.9032597E-2,-7.234041E-4,5.5337823E-3,-4.018584E-2,3.010354E-2,-7.171955E-2,7.744085E-2,-3.856796E-3,-1.5618316E-2,6.086793E-2,6.4357854E-2,8.4973834E-2,4.7225628E-2,-5.9804913E-2,4.5532845E-2,-4.0902164E-2,-7.542096E-2,2.7820537E-2,1.0876426E-2,-7.8635305E-2,-6.532457E-2,5.6047916E-2],"split_indices":[16,9,9,13,12,14,1,14,3,15,12,6,7,10,6,1,1,9,5,6,9,1,0,0,3,12,1,7,16,7,32,0,0,0,0,0,0,0,0,0,0,0,0,0,0,0,0,0,0,0,0,0,0,0,0,0,0,0,0,0,0],"split_type":[0,0,0,0,0,0,0,0,0,0,0,0,0,0,0,0,0,0,0,0,0,0,0,0,0,0,0,0,0,0,0,0,0,0,0,0,0,0,0,0,0,0,0,0,0,0,0,0,0,0,0,0,0,0,0,0,0,0,0,0,0],"sum_hessian":[1.1961023E3,8.668555E2,3.2924683E2,4.0757773E2,4.592778E2,2.1961057E2,1.0963625E2,3.1741046E2,9.0167244E1,4.2665814E2,3.2619644E1,1.0037122E1,2.0957346E2,9.505204E1,1.4584217E1,1.0882527E2,2.085852E2,2.7206604E0,8.744658E1,3.398685E2,8.678966E1,1.7958874E1,1.4660771E1,1.744047E0,8.293075E0,2.0006123E2,9.512219E0,9.03514E1,4.700635E0,6.4552536E0,8.128963E0,6.692069E1,4.1904575E1,7.654651E1,1.320387E2,1.4898958E0,1.2307647E0,8.619864E1,1.247945E0,3.2237775E2,1.7490746E1,2.9329573E1,5.7460083E1,1.4971321E1,2.987552E0,1.3186912E1,1.4738595E0,1.7187457E0,6.5743294E0,1.6005655E2,4.0004684E1,8.014192E0,1.4980278E0,8.738184E1,2.9695575E0,2.7413988E0,1.9592361E0,1.2310394E0,5.2242146E0,1.9973036E0,6.13166E0],"tree_param":{"num_deleted":"0","num_feature":"36","num_nodes":"61","size_leaf_vector":"1"}},{"base_weights":[-7.871951E-3,-4.1186985E-1,9.190603E-1,1.3691118E-1,-8.876938E-1,1.1018063E0,2.4536738E-1,-5.814334E-2,9.807909E-1,-9.829096E-1,4.0965062E-1,5.8278716E-1,1.2537051E0,-4.6801567E-1,7.5417846E-1,-3.606798E-1,4.1785428E-1,1.0854782E0,-7.59255E-3,-5.66554E-1,-1.1334562E0,-1.3586412E-1,1.1783437E0,-1.4530559E-1,9.824509E-1,3.4179562E-1,1.2983812E0,3.4730092E-1,-1.1808707E0,-8.7732756E-1,9.0869635E-1,4.4234907E-3,-3.4489E-2,4.745583E-2,6.469875E-3,6.647099E-2,2.7268885E-2,-4.2476755E-2,3.368513E-2,-3.645982E-2,2.0731494E-2,-3.3127647E-2,-6.376022E-2,7.990549E-3,-6.9137685E-2,6.936592E-2,-5.8040447E-3,4.6074793E-2,-3.3173252E-2,7.278442E-2,3.615094E-2,-4.4404812E-2,4.9051676E-2,7.3578514E-2,5.79242E-2,-5.644081E-2,4.791052E-2,2.2418402E-2,-7.200211E-2,1.2369012E-2,-6.911343E-2,3.0276356E-2,7.3673904E-2],"categories":[],"categories_nodes":[],"categories_segments":[],"categories_sizes":[],"default_left":[0,0,0,0,0,0,0,0,0,0,0,0,0,0,0,0,0,0,0,0,0,0,0,0,0,0,0,0,0,0,0,0,0,0,0,0,0,0,0,0,0,0,0,0,0,0,0,0,0,0,0,0,0,0,0,0,0,0,0,0,0,0,0],"id":4,"left_children":[1,3,5,7,9,11,13,15,17,19,21,23,25,27,29,31,33,35,37,39,41,43,45,47,49,51,53,55,57,59,61,-1,-1,-1,-1,-1,-1,-1,-1,-1,-1,-1,-1,-1,-1,-1,-1,-1,-1,-1,-1,-1,-1,-1,-1,-1,-1,-1,-1,-1,-1,-1,-1],"loss_changes":[4.4253265E2,2.1502792E2,4.3892334E1,6.3111176E1,5.487079E1,2.1492584E1,2.8602747E1,4.5094303E1,7.4556046E0,2.5124908E1,1.3098562E1,1.9257555E1,8.404816E0,1.9600029E1,1.2345877E1,2.834571E1,1.8533714E1,7.850601E0,5.0960474E0,1.804258E1,1.9241241E1,7.2051144E0,3.653473E0,1.39610405E1,4.170025E0,9.913352E0,3.3031616E0,1.5667514E1,8.179897E0,2.8816826E0,6.3571205E0,0E0,0E0,0E0,0E0,0E0,0E0,0E0,0E0,0E0,0E0,0E0,0E0,0E0,0E0,0E0,0E0,0E0,0E0,0E0,0E0,0E0,0E0,0E0,0E0,0E0,0E0,0E0,0E0,0E0,0E0,0E0,0E0],"parents":[2147483647,0,0,1,1,2,2,3,3,4,4,5,5,6,6,7,7,8,8,9,9,10,10,11,11,12,12,13,13,14,14,15,15,16,16,17,17,18,18,19,19,20,20,21,21,22,22,23,23,24,24,25,25,26,26,27,27,28,28,29,29,30,30],"right_children":[2,4,6,8,10,12,14,16,18,20,22,24,26,28,30,32,34,36,38,40,42,44,46,48,50,52,54,56,58,60,62,-1,-1,-1,-1,-1,-1,-1,-1,-1,-1,-1,-1,-1,-1,-1,-1,-1,-1,-1,-1,-1,-1,-1,-1,-1,-1,-1,-1,-1,-1,-1,-1],"split_conditions":[4.9506533E-1,-2.4579157E-1,8.1605774E-1,1.6719476E0,2.6835632E0,-4.3694696E-1,1.6839831E0,2.8286567E-1,-5.1011786E-2,3.3146113E-1,-2.1828529E-1,1.4461995E0,-6.385629E-1,-5.081791E-1,3.9407256E-1,-5.034486E-1,-8.08998E-1,3.6919245E-1,1E0,6.8400484E-1,-9.977769E-1,7.0707196E-1,1.0126214E0,-1.2235332E0,-5.047879E-1,2.1778722E0,1E0,-3.8416556E-1,-1.3479912E0,-1.0460963E0,4.965349E-1,4.4234907E-3,-3.4489E-2,4.745583E-2,6.469875E-3,6.647099E-2,2.7268885E-2,-4.2476755E-2,3.368513E-2,-3.645982E-2,2.0731494E-2,-3.3127647E-2,-6.376022E-2,7.990549E-3,-6.9137685E-2,6.936592E-2,-5.8040447E-3,4.6074793E-2,-3.3173252E-2,7.278442E-2,3.615094E-2,-4.4404812E-2,4.9051676E-2,7.3578514E-2,5.79242E-2,-5.644081E-2,4.791052E-2,2.2418402E-2,-7.200211E-2,1.2369012E-2,-6.911343E-2,3.0276356E-2,7.3673904E-2],"split_indices":[16,9,1,12,12,10,16,14,11,9,16,16,14,9,14,1,1,0,17,14,1,1,1,1,8,6,32,6,10,5,6,0,0,0,0,0,0,0,0,0,0,0,0,0,0,0,0,0,0,0,0,0,0,0,0,0,0,0,0,0,0,0,0],"split_type":[0,0,0,0,0,0,0,0,0,0,0,0,0,0,0,0,0,0,0,0,0,0,0,0,0,0,0,0,0,0,0,0,0,0,0,0,0,0,0,0,0,0,0,0,0,0,0,0,0,0,0,0,0,0,0,0,0,0,0,0,0,0,0],"sum_hessian":[1.1797191E3,8.220077E2,3.577115E2,3.8206906E2,4.3993863E2,2.808835E2,7.682797E1,3.1109387E2,7.09752E1,4.1008377E2,2.9854847E1,6.468833E1,2.1619519E2,3.2017597E1,4.4810375E1,1.9035167E2,1.2074221E2,6.408882E1,6.8863745E0,1.1016685E2,2.9991693E2,1.7943922E1,1.1910925E1,2.3150335E1,4.1537994E1,1.0501112E1,2.0569408E2,1.5174643E1,1.6842955E1,3.4720666E0,4.1338306E1,8.080361E1,1.0954806E2,4.1682877E1,7.905933E1,4.314193E1,2.0946894E1,2.9696045E0,3.91677E0,9.472236E1,1.5444486E1,7.070411E1,2.2921281E2,1.5209195E1,2.7347267E0,1.01935E1,1.7174253E0,7.313889E0,1.5836446E1,1.3075521E1,2.8462473E1,3.458214E0,7.042898E0,8.765748E1,1.1803659E2,4.19373E0,1.0980913E1,2.211393E0,1.4631561E1,1.2338547E0,2.238212E0,2.824748E1,1.3090826E1],"tree_param":{"num_deleted":"0","num_feature":"36","num_nodes":"63","size_leaf_vector":"1"}},{"base_weights":[-2.143434E-3,-3.5806376E-1,9.344337E-1,-5.710447E-1,6.537725E-1,4.802272E-1,1.1146828E0,-9.715725E-1,-2.2574735E-1,1.5680456E-1,1.0045162E0,7.7651364E-1,-7.708101E-1,7.297665E-1,1.214309E0,-6.585154E-1,-1.1518805E0,-8.7168723E-1,1.7934714E-2,5.0014895E-1,-5.720137E-1,-5.558833E-2,1.0476961E0,2.4154636E-1,1.103834E0,-1.256579E0,6.016037E-2,-9.4181854E-1,8.932774E-1,1.3210369E0,8.513732E-1,-6.333707E-2,-2.23378E-2,-3.758581E-2,-6.812418E-2,-1.7108753E-2,-6.406209E-2,-1.0748147E-2,2.5948226E-2,-2.9974936E-2,3.617532E-2,-4.85992E-2,5.617672E-2,3.7027102E-2,6.2223256E-2,6.0086858E-2,-1.0684287E-2,-1.948152E-2,5.8396395E-2,2.165967E-2,-7.8619346E-2,1.0733346E-2,-6.911218E-2,4.9001317E-2,-6.2986E-2,6.799318E-2,2.5459347E-2,-2.3308534E-2,4.909457E-2],"categories":[],"categories_nodes":[],"categories_segments":[],"categories_sizes":[],"default_left":[0,0,0,0,0,0,0,0,0,0,0,0,0,0,0,0,0,0,0,0,0,0,0,0,0,0,0,0,0,0,0,0,0,0,0,0,0,0,0,0,0,0,0,0,0,0,0,0,0,0,0,0,0,0,0,0,0,0,0],"id":5,"left_children":[1,3,5,7,9,11,13,15,17,19,21,23,25,27,29,31,33,35,37,39,41,-1,43,45,47,49,-1,51,53,55,57,-1,-1,-1,-1,-1,-1,-1,-1,-1,-1,-1,-1,-1,-1,-1,-1,-1,-1,-1,-1,-1,-1,-1,-1,-1,-1,-1,-1],"loss_changes":[3.9369565E2,1.8480136E2,2.6091278E1,9.7632416E1,2.5863384E1,3.5498314E1,8.013336E0,1.7714417E1,6.002794E1,1.6038536E1,9.145111E0,1.3150597E1,1.928143E1,1.4568241E1,5.95813E0,1.5139431E1,1.6364014E1,2.2214005E1,3.252868E1,1.1074993E1,1.507959E1,0E0,4.2821045E0,1.35301E1,4.978634E0,8.878138E0,0E0,2.8239431E0,9.874695E0,3.7043915E0,8.086792E0,0E0,0E0,0E0,0E0,0E0,0E0,0E0,0E0,0E0,0E0,0E0,0E0,0E0,0E0,0E0,0E0,0E0,0E0,0E0,0E0,0E0,0E0,0E0,0E0,0E0,0E0,0E0,0E0],"parents":[2147483647,0,0,1,1,2,2,3,3,4,4,5,5,6,6,7,7,8,8,9,9,10,10,11,11,12,12,13,13,14,14,15,15,16,16,17,17,18,18,19,19,20,20,22,22,23,23,24,24,25,25,27,27,28,28,29,29,30,30],"right_children":[2,4,6,8,10,12,14,16,18,20,22,24,26,28,30,32,34,36,38,40,42,-1,44,46,48,50,-1,52,54,56,58,-1,-1,-1,-1,-1,-1,-1,-1,-1,-1,-1,-1,-1,-1,-1,-1,-1,-1,-1,-1,-1,-1,-1,-1,-1,-1,-1,-1],"split_conditions":[7.328489E-1,-2.8715217E-2,-6.4900643E-3,-2.135937E-1,1.3185318E-1,9.445053E-1,-4.3694696E-1,-4.7584873E-1,-4.6104866E-1,3.1783706E-1,-1.5917649E0,1.4461995E0,2.0694408E0,1.208416E0,7.96596E-1,-9.4031227E-1,-5.949188E-1,-2.8742322E-1,6.6586196E-1,-9.141606E-1,1.1467804E0,-5.558833E-2,1.359137E-1,-8.983693E-1,-1.5135132E0,-5.979846E-1,6.016037E-2,-7.2593975E-1,-4.9479103E-1,1.5160341E0,9.5423615E-1,-6.333707E-2,-2.23378E-2,-3.758581E-2,-6.812418E-2,-1.7108753E-2,-6.406209E-2,-1.0748147E-2,2.5948226E-2,-2.9974936E-2,3.617532E-2,-4.85992E-2,5.617672E-2,3.7027102E-2,6.2223256E-2,6.0086858E-2,-1.0684287E-2,-1.948152E-2,5.8396395E-2,2.165967E-2,-7.8619346E-2,1.0733346E-2,-6.911218E-2,4.9001317E-2,-6.2986E-2,6.799318E-2,2.5459347E-2,-2.3308534E-2,4.909457E-2],"split_indices":[16,13,15,14,10,1,10,0,10,1,14,16,13,16,1,15,1,1,15,10,15,0,14,0,1,7,0,14,10,0,1,0,0,0,0,0,0,0,0,0,0,0,0,0,0,0,0,0,0,0,0,0,0,0,0,0,0,0,0],"split_type":[0,0,0,0,0,0,0,0,0,0,0,0,0,0,0,0,0,0,0,0,0,0,0,0,0,0,0,0,0,0,0,0,0,0,0,0,0,0,0,0,0,0,0,0,0,0,0,0,0,0,0,0,0,0,0,0,0,0,0],"sum_hessian":[1.1790354E3,8.548072E2,3.2422824E2,7.065264E2,1.4828079E2,9.315438E1,2.3107384E2,3.2626337E2,3.8026303E2,6.1950443E1,8.6330345E1,7.5623566E1,1.7530819E1,4.9222507E1,1.8185133E2,1.20938255E2,2.0532512E2,1.0345437E2,2.768087E2,4.2325E1,1.9625444E1,1.2313923E0,8.509895E1,2.9366076E1,4.625749E1,1.4360427E1,3.170393E0,3.9617062E0,4.5260803E1,1.3848688E2,4.3364452E1,2.9945448E1,9.0992805E1,7.2375244E1,1.3294989E2,4.591999E1,5.7534374E1,1.8935858E2,8.745009E1,6.8612485E0,3.5463753E1,1.6224838E1,3.4006052E0,3.5088974E1,5.000998E1,8.917388E0,2.0448689E1,1.6945004E0,4.456299E1,2.2027287E0,1.2157698E1,1.2340034E0,2.7277029E0,4.4031487E1,1.2293147E0,1.3152185E2,6.9650364E0,3.676775E0,3.968768E1],"tree_param":{"num_deleted":"0","num_feature":"36","num_nodes":"59","size_leaf_vector":"1"}},{"base_weights":[-9.997278E-3,-3.373057E-1,9.558041E-1,-5.193319E-1,5.716747E-1,5.6338334E-1,1.0804498E0,-7.880068E-1,-1.1928543E-1,-3.2140594E-2,7.8269154E-1,-3.320304E-1,7.259852E-1,4.276042E-2,1.1238621E0,-8.5464585E-1,1.9314323E-2,2.1082597E-2,-6.552075E-1,-9.0849495E-1,4.71073E-1,9.374685E-1,2.3324332E-1,-1.0213561E0,5.769969E-1,8.314574E-1,-6.0723615E-1,7.553869E-1,-1.0220953E0,1.1832762E0,4.0273708E-1,-3.1229625E-2,-5.092302E-2,3.508773E-2,-2.293514E-2,-1.1224937E-2,1.7257668E-2,9.946929E-5,-5.5718835E-2,2.2676602E-2,-5.946674E-2,-5.935518E-2,3.2145515E-2,-4.044126E-2,5.0278496E-2,4.9359996E-2,-3.491096E-2,-8.354626E-2,8.06257E-3,-1.7417487E-2,5.2169938E-2,4.69395E-2,-1.4149934E-2,-7.281347E-2,4.8111897E-2,5.0427746E-2,-3.765465E-3,-7.241381E-2,3.3822132E-3,6.039076E-2,-2.001018E-3,3.457823E-2,-7.27675E-2],"categories":[],"categories_nodes":[],"categories_segments":[],"categories_sizes":[],"default_left":[0,0,0,0,0,0,0,0,0,0,0,0,0,0,0,0,0,0,0,0,0,0,0,0,0,0,0,0,0,0,0,0,0,0,0,0,0,0,0,0,0,0,0,0,0,0,0,0,0,0,0,0,0,0,0,0,0,0,0,0,0,0,0],"id":6,"left_children":[1,3,5,7,9,11,13,15,17,19,21,23,25,27,29,31,33,35,37,39,41,43,45,47,49,51,53,55,57,59,61,-1,-1,-1,-1,-1,-1,-1,-1,-1,-1,-1,-1,-1,-1,-1,-1,-1,-1,-1,-1,-1,-1,-1,-1,-1,-1,-1,-1,-1,-1,-1,-1],"loss_changes":[3.674125E2,1.4392465E2,1.3781372E1,7.769699E1,1.8539268E1,1.0870874E1,9.96109E0,2.3300232E1,2.1977226E1,1.744601E1,8.941643E0,8.050199E0,9.237583E0,8.331359E0,8.659027E0,1.4431274E1,1.1406142E1,1.8567982E1,1.8298244E1,6.0543365E0,7.9357786E0,1.0768539E1,1.8249985E1,5.7486105E0,2.855432E0,7.2001076E0,8.23814E0,1.4519441E0,2.150154E0,5.9463196E0,1.0530372E1,0E0,0E0,0E0,0E0,0E0,0E0,0E0,0E0,0E0,0E0,0E0,0E0,0E0,0E0,0E0,0E0,0E0,0E0,0E0,0E0,0E0,0E0,0E0,0E0,0E0,0E0,0E0,0E0,0E0,0E0,0E0,0E0],"parents":[2147483647,0,0,1,1,2,2,3,3,4,4,5,5,6,6,7,7,8,8,9,9,10,10,11,11,12,12,13,13,14,14,15,15,16,16,17,17,18,18,19,19,20,20,21,21,22,22,23,23,24,24,25,25,26,26,27,27,28,28,29,29,30,30],"right_children":[2,4,6,8,10,12,14,16,18,20,22,24,26,28,30,32,34,36,38,40,42,44,46,48,50,52,54,56,58,60,62,-1,-1,-1,-1,-1,-1,-1,-1,-1,-1,-1,-1,-1,-1,-1,-1,-1,-1,-1,-1,-1,-1,-1,-1,-1,-1,-1,-1,-1,-1,-1,-1],"split_conditions":[9.7063243E-1,-1.7632419E-1,1.4461995E0,1.20027E-1,-3.1685725E-1,-5.442929E-1,-6.385629E-1,1.217108E0,6.5161586E-1,-3.8416556E-1,3.0183558E0,1E0,1E0,-5.395057E-1,1.3771781E0,1E0,-5.7368445E-1,-2.1828529E-1,-4.4725573E-1,5.300902E-1,-1.786377E0,-1.2865361E0,-2.918363E-1,-2.6250073E-1,1E0,1E0,-1.7632419E-1,1.9217666E0,2.5781906E0,1E0,1E0,-3.1229625E-2,-5.092302E-2,3.508773E-2,-2.293514E-2,-1.1224937E-2,1.7257668E-2,9.946929E-5,-5.5718835E-2,2.2676602E-2,-5.946674E-2,-5.935518E-2,3.2145515E-2,-4.044126E-2,5.0278496E-2,4.9359996E-2,-3.491096E-2,-8.354626E-2,8.06257E-3,-1.7417487E-2,5.2169938E-2,4.69395E-2,-1.4149934E-2,-7.281347E-2,4.8111897E-2,5.0427746E-2,-3.765465E-3,-7.241381E-2,3.3822132E-3,6.039076E-2,-2.001018E-3,3.457823E-2,-7.27675E-2],"split_indices":[16,13,16,14,14,6,14,6,7,6,13,28,30,7,5,32,2,16,5,13,14,2,5,7,32,25,13,16,6,19,27,0,0,0,0,0,0,0,0,0,0,0,0,0,0,0,0,0,0,0,0,0,0,0,0,0,0,0,0,0,0,0,0],"split_type":[0,0,0,0,0,0,0,0,0,0,0,0,0,0,0,0,0,0,0,0,0,0,0,0,0,0,0,0,0,0,0,0,0,0,0,0,0,0,0,0,0,0,0,0,0,0,0,0,0,0,0,0,0,0,0,0,0,0,0,0,0,0,0],"sum_hessian":[1.1602551E3,8.670606E2,2.9319458E2,7.2275525E2,1.4430534E2,7.200903E1,2.2118555E2,4.3179077E2,2.9096448E2,3.759024E1,1.06715096E2,1.0906624E1,6.110241E1,8.961569E0,2.1222397E2,3.9881277E2,3.2978016E1,2.3133434E2,5.9630135E1,1.34177065E1,2.4172533E1,8.270991E1,2.400519E1,6.132619E0,4.774005E0,5.6971695E1,4.130717E0,5.542811E0,3.4187586E0,1.9547757E2,1.6746403E1,1.6787285E2,2.3093991E2,1.3391545E1,1.958647E1,1.3177914E2,9.955519E1,2.4935816E1,3.4694317E1,2.188573E0,1.1229134E1,1.715002E0,2.2457531E1,2.696181E0,8.0013725E1,1.3233621E1,1.0771569E1,3.691873E0,2.4407458E0,1.6846842E0,3.0893207E0,5.211058E1,4.8611135E0,2.7274086E0,1.4033083E0,4.084029E0,1.4587812E0,2.2211063E0,1.1976523E0,1.9164586E2,3.8317113E0,1.5036834E1,1.7095693E0],"tree_param":{"num_deleted":"0","num_feature":"36","num_nodes":"63","size_leaf_vector":"1"}},{"base_weights":[-2.805508E-4,-3.2743558E-1,8.6266863E-1,2.4325009E-1,-6.7549425E-1,1.0670109E0,4.4545415E-1,-1.6690452E-1,6.138581E-1,-9.792152E-1,-4.0548977E-1,4.3169614E-2,1.1110077E0,-3.456988E-1,6.0410273E-1,-2.8271055E-1,9.1183096E-1,7.3271185E-1,-5.3150666E-1,-1.0401295E0,3.356691E-1,-1.097786E0,-2.2987036E-1,-6.769391E-2,6.248987E-1,1.1751431E0,5.5546486E-1,-8.5995144E-1,6.147417E-1,1.1989946E0,4.3275794E-1,-2.7055888E-2,8.4666E-3,5.9928026E-2,-1.0973989E-2,2.452199E-2,5.1167544E-2,-4.5317512E-2,6.600802E-2,-5.611495E-2,-6.4852387E-3,4.4611327E-2,-6.282773E-2,-6.2126346E-2,4.2886417E-3,-1.6585575E-2,4.1214656E-2,6.251189E-2,6.503184E-5,6.0876366E-2,2.2952145E-2,4.3313517E-3,5.632787E-2,-5.9388738E-2,3.031303E-2,-2.058472E-2,5.4312397E-2,-2.4619509E-2,7.0615105E-2,5.1260233E-2,1.1986311E-2],"categories":[],"categories_nodes":[],"categories_segments":[],"categories_sizes":[],"default_left":[0,0,0,0,0,0,0,0,0,0,0,0,0,0,0,0,0,0,0,0,0,0,0,0,0,0,0,0,0,0,0,0,0,0,0,0,0,0,0,0,0,0,0,0,0,0,0,0,0,0,0,0,0,0,0,0,0,0,0,0,0],"id":7,"left_children":[1,3,5,7,9,11,13,15,17,19,21,23,25,27,29,31,33,35,37,39,41,43,45,-1,47,49,51,53,55,57,59,-1,-1,-1,-1,-1,-1,-1,-1,-1,-1,-1,-1,-1,-1,-1,-1,-1,-1,-1,-1,-1,-1,-1,-1,-1,-1,-1,-1,-1,-1],"loss_changes":[3.3119443E2,1.6912804E2,2.7018219E1,4.919935E1,4.2955E1,9.67067E0,1.3731516E1,1.9508858E1,2.3516685E1,2.021933E1,3.3980232E1,8.915951E0,6.7162933E0,9.731041E0,8.6657295E0,1.6436523E1,5.185939E0,1.0365623E1,1.2684698E1,1.7609772E1,1.1524701E1,9.821236E0,2.4520529E1,0E0,2.9990153E0,5.041443E0,6.14149E0,6.753028E0,3.8738985E0,7.7611904E0,7.9334507E0,0E0,0E0,0E0,0E0,0E0,0E0,0E0,0E0,0E0,0E0,0E0,0E0,0E0,0E0,0E0,0E0,0E0,0E0,0E0,0E0,0E0,0E0,0E0,0E0,0E0,0E0,0E0,0E0,0E0,0E0],"parents":[2147483647,0,0,1,1,2,2,3,3,4,4,5,5,6,6,7,7,8,8,9,9,10,10,11,11,12,12,13,13,14,14,15,15,16,16,17,17,18,18,19,19,20,20,21,21,22,22,24,24,25,25,26,26,27,27,28,28,29,29,30,30],"right_children":[2,4,6,8,10,12,14,16,18,20,22,24,26,28,30,32,34,36,38,40,42,44,46,-1,48,50,52,54,56,58,60,-1,-1,-1,-1,-1,-1,-1,-1,-1,-1,-1,-1,-1,-1,-1,-1,-1,-1,-1,-1,-1,-1,-1,-1,-1,-1,-1,-1,-1,-1],"split_conditions":[7.328489E-1,-5.6065667E-1,1.7402856E-1,6.839522E-2,-2.6522547E-1,-6.385629E-1,1.208416E0,1.8480275E0,-2.3865692E-2,1.4572991E0,-1.0394895E0,2.1778722E0,1.33531E0,1E0,-5.856733E-1,-6.3910834E-2,-9.804768E-1,-2.240382E-1,1.3900336E0,1E0,2.5161693E-1,1.1370443E0,1.9039824E0,-6.769391E-2,-6.4228255E-1,5.6731594E-1,7.39216E-1,3.5389547E0,-5.395699E-1,-7.0621E-1,-6.6898644E-1,-2.7055888E-2,8.4666E-3,5.9928026E-2,-1.0973989E-2,2.452199E-2,5.1167544E-2,-4.5317512E-2,6.600802E-2,-5.611495E-2,-6.4852387E-3,4.4611327E-2,-6.282773E-2,-6.2126346E-2,4.2886417E-3,-1.6585575E-2,4.1214656E-2,6.251189E-2,6.503184E-5,6.0876366E-2,2.2952145E-2,4.3313517E-3,5.632787E-2,-5.9388738E-2,3.031303E-2,-2.058472E-2,5.4312397E-2,-2.4619509E-2,7.0615105E-2,5.1260233E-2,1.1986311E-2],"split_indices":[16,9,9,14,14,14,16,13,11,6,10,6,5,24,7,6,9,6,2,26,11,6,8,0,4,11,10,6,2,4,4,0,0,0,0,0,0,0,0,0,0,0,0,0,0,0,0,0,0,0,0,0,0,0,0,0,0,0,0,0,0],"split_type":[0,0,0,0,0,0,0,0,0,0,0,0,0,0,0,0,0,0,0,0,0,0,0,0,0,0,0,0,0,0,0,0,0,0,0,0,0,0,0,0,0,0,0,0,0,0,0,0,0,0,0,0,0,0,0,0,0,0,0,0,0],"sum_hessian":[1.1711241E3,8.4963666E2,3.2148752E2,3.2199185E2,5.276448E2,2.1475024E2,1.0673728E2,1.5310219E2,1.6888968E2,2.4708203E2,2.8056274E2,8.929717E0,2.0582053E2,1.7631758E1,8.910552E1,1.3892593E2,1.4176261E1,1.5333815E2,1.5551521E1,2.3634203E2,1.0740006E1,5.570829E1,2.2485445E2,2.23498E0,6.694737E0,1.8351862E2,2.2301907E1,1.1551381E1,6.0803757E0,1.8584492E1,7.0521034E1,8.826994E1,5.0655987E1,1.1262379E1,2.9138827E0,8.509322E1,6.8244934E1,1.3357922E1,2.1935992E0,2.165636E2,1.9778425E1,8.283994E0,2.4560122E0,4.959353E1,6.114761E0,2.0567029E2,1.9184162E1,2.8409636E0,3.853773E0,1.726025E2,1.0916118E1,1.2879872E1,9.422033E0,9.595804E0,1.9555775E0,1.9538449E0,4.1265306E0,1.9347621E0,1.664973E1,1.6271132E1,5.42499E1],"tree_param":{"num_deleted":"0","num_feature":"36","num_nodes":"61","size_leaf_vector":"1"}},{"base_weights":[1.9836469E-2,-2.8960678E-1,8.5693634E-1,2.8071454E-1,-6.3447016E-1,1.1424932E0,5.4214364E-1,-1.5208071E-1,6.424697E-1,-7.8172404E-1,3.2272798E-1,3.155622E-1,1.1769964E0,6.91154E-1,-6.960935E-1,4.024443E-1,-5.965003E-1,7.4782985E-1,-5.318908E-1,-1.0299351E0,-5.3871024E-1,-6.6172564E-1,5.348031E-1,8.349176E-1,-3.7669845E-2,1.1975582E0,-2.4051545E-2,1.03766985E-1,8.099868E-1,-1.4090236E0,4.4393197E-2,3.7398916E-2,-1.6028538E-2,-4.3755483E-2,3.364689E-2,5.2936938E-2,2.5487125E-2,-4.6876922E-2,6.391892E-2,7.76275E-2,-5.3080853E-2,-8.939101E-3,-4.259084E-2,-4.967445E-2,5.9361693E-2,-1.5623806E-3,4.091914E-2,-1.1353723E-2,6.1324835E-2,6.6155925E-2,4.9805313E-2,5.0017145E-2,-1.4987049E-2,4.357623E-2,-1.4442309E-2,-8.3316244E-2,5.3304965E-3,-2.346095E-2,5.933596E-2],"categories":[],"categories_nodes":[],"categories_segments":[],"categories_sizes":[],"default_left":[0,0,0,0,0,0,0,0,0,0,0,0,0,0,0,0,0,0,0,0,0,0,0,0,0,0,0,0,0,0,0,0,0,0,0,0,0,0,0,0,0,0,0,0,0,0,0,0,0,0,0,0,0,0,0,0,0,0,0],"id":8,"left_children":[1,3,5,7,9,11,13,15,17,19,21,23,25,27,29,31,33,35,37,39,41,43,45,47,-1,49,-1,51,53,55,57,-1,-1,-1,-1,-1,-1,-1,-1,-1,-1,-1,-1,-1,-1,-1,-1,-1,-1,-1,-1,-1,-1,-1,-1,-1,-1,-1,-1],"loss_changes":[3.0347693E2,1.6842435E2,2.7803421E1,5.0674026E1,7.543324E1,4.3332214E0,2.8581955E1,3.6685116E1,2.2192963E1,2.7346222E1,1.5348854E1,5.054143E0,5.9599E0,9.439735E0,8.961831E0,1.6825647E1,2.9765676E1,1.1456795E1,1.2277326E1,2.0281143E1,2.6424118E1,9.262448E0,9.599899E0,2.7065806E0,0E0,2.634842E0,0E0,9.020634E0,7.9155426E0,3.5388546E0,5.9770875E0,0E0,0E0,0E0,0E0,0E0,0E0,0E0,0E0,0E0,0E0,0E0,0E0,0E0,0E0,0E0,0E0,0E0,0E0,0E0,0E0,0E0,0E0,0E0,0E0,0E0,0E0,0E0,0E0],"parents":[2147483647,0,0,1,1,2,2,3,3,4,4,5,5,6,6,7,7,8,8,9,9,10,10,11,11,12,12,13,13,14,14,15,15,16,16,17,17,18,18,19,19,20,20,21,21,22,22,23,23,25,25,27,27,28,28,29,29,30,30],"right_children":[2,4,6,8,10,12,14,16,18,20,22,24,26,28,30,32,34,36,38,40,42,44,46,48,-1,50,-1,52,54,56,58,-1,-1,-1,-1,-1,-1,-1,-1,-1,-1,-1,-1,-1,-1,-1,-1,-1,-1,-1,-1,-1,-1,-1,-1,-1,-1,-1,-1],"split_conditions":[7.328489E-1,-5.6065667E-1,-4.032241E-1,6.839522E-2,-8.143271E-2,-8.645476E-1,1.2052927E0,-4.509019E-1,-2.3865692E-2,-2.6522547E-1,-6.1638784E-1,-6.0599864E-1,2.2838163E0,1.208416E0,-2.3865692E-2,1E0,1.3998075E-1,-4.0808603E-1,1.3900336E0,-2.37986E0,-2.3876886E-1,6.731607E-1,-5.442929E-1,-1.4002969E0,-3.7669845E-2,1.8744338E-1,-2.4051545E-2,-9.5872945E-1,2.1812992E0,1.6529129E0,-1.7632419E-1,3.7398916E-2,-1.6028538E-2,-4.3755483E-2,3.364689E-2,5.2936938E-2,2.5487125E-2,-4.6876922E-2,6.391892E-2,7.76275E-2,-5.3080853E-2,-8.939101E-3,-4.259084E-2,-4.967445E-2,5.9361693E-2,-1.5623806E-3,4.091914E-2,-1.1353723E-2,6.1324835E-2,6.6155925E-2,4.9805313E-2,5.0017145E-2,-1.4987049E-2,4.357623E-2,-1.4442309E-2,-8.3316244E-2,5.3304965E-3,-2.346095E-2,5.933596E-2],"split_indices":[16,9,9,14,13,6,1,1,11,14,4,11,4,16,11,33,13,1,2,3,1,7,6,9,0,1,0,0,7,1,13,0,0,0,0,0,0,0,0,0,0,0,0,0,0,0,0,0,0,0,0,0,0,0,0,0,0,0,0],"split_type":[0,0,0,0,0,0,0,0,0,0,0,0,0,0,0,0,0,0,0,0,0,0,0,0,0,0,0,0,0,0,0,0,0,0,0,0,0,0,0,0,0,0,0,0,0,0,0,0,0,0,0,0,0,0,0,0,0,0,0],"sum_hessian":[1.1696096E3,8.5441846E2,3.1519122E2,3.220353E2,5.323831E2,1.638915E2,1.5129971E2,1.4688509E2,1.751502E2,4.615607E2,7.082246E1,6.9707494E0,1.5692075E2,1.354423E2,1.5857404E1,6.5389595E1,8.149549E1,1.610633E2,1.4086915E1,2.2673663E2,2.3482405E2,1.2176917E1,5.864554E1,4.838769E0,2.1319804E0,1.5527287E2,1.6478722E0,2.3105532E1,1.1233678E2,7.6190524E0,8.238351E0,4.4221363E1,2.1168228E1,6.708309E1,1.4412398E1,6.8354706E1,9.2708595E1,1.19019985E1,2.1849165E0,2.1661077E0,2.2457053E2,1.0997476E2,1.2484928E2,1.0716675E1,1.4602427E0,1.987101E1,3.877453E1,1.416694E0,3.422075E0,9.222396E1,6.304892E1,6.7122073E0,1.6393326E1,1.06575134E2,5.761645E0,6.428325E0,1.1907275E0,6.089593E0,2.1487582E0],"tree_param":{"num_deleted":"0","num_feature":"36","num_nodes":"59","size_leaf_vector":"1"}},{"base_weights":[-1.1927229E-2,-3.2391694E-1,8.171218E-1,2.1675122E-1,-6.4893353E-1,1.0493234E0,5.212132E-1,-8.110896E-2,5.667272E-1,-7.8384537E-1,2.1188325E-1,7.1446806E-1,1.2446799E0,-3.2517245E-1,6.8646085E-1,-4.9209753E-1,3.5326946E-1,3.5002553E-1,1.0248454E0,-4.9317423E-1,-9.8611903E-1,-1.683253E-2,1.0509878E0,-2.7693757E-1,8.070509E-1,2.4588953E-3,1.2576143E0,1.8546725E-2,-7.401987E-2,5.138478E-1,1.2902538E0,-3.0342087E-2,4.7613103E-2,2.5752587E-2,-6.4748995E-2,2.9038826E-2,-4.5405034E-2,1.4655202E-2,6.333467E-2,3.05249E-2,-2.9076133E-2,5.3131163E-2,-5.055824E-2,-2.9498965E-2,2.0092407E-2,-5.142493E-2,6.724608E-2,2.1586275E-2,-7.005205E-2,2.1820834E-2,4.898904E-2,6.6572934E-2,4.5800548E-2,-2.224267E-2,3.726129E-2,8.831746E-3,4.1687906E-2,-1.0991966E-3,6.776397E-2],"categories":[],"categories_nodes":[],"categories_segments":[],"categories_sizes":[],"default_left":[0,0,0,0,0,0,0,0,0,0,0,0,0,0,0,0,0,0,0,0,0,0,0,0,0,0,0,0,0,0,0,0,0,0,0,0,0,0,0,0,0,0,0,0,0,0,0,0,0,0,0,0,0,0,0,0,0,0,0],"id":9,"left_children":[1,3,5,7,9,11,13,15,17,19,21,23,25,27,29,31,33,35,37,39,41,43,45,47,49,-1,51,53,-1,55,57,-1,-1,-1,-1,-1,-1,-1,-1,-1,-1,-1,-1,-1,-1,-1,-1,-1,-1,-1,-1,-1,-1,-1,-1,-1,-1,-1,-1],"loss_changes":[2.9550253E2,1.460028E2,2.0917007E1,3.261059E1,6.0400894E1,1.0496109E1,1.9711258E1,3.0457745E1,1.3912491E1,2.5889343E1,1.365554E1,6.32502E0,1.6170044E0,9.334375E0,1.1520367E1,1.5092978E1,2.2813568E1,2.9300377E1,7.7064323E0,1.8499172E1,1.4596619E1,1.3873129E1,1.0696192E1,5.7207656E0,3.4809685E0,0E0,1.4887695E0,6.747059E0,0E0,9.839031E0,2.1909409E0,0E0,0E0,0E0,0E0,0E0,0E0,0E0,0E0,0E0,0E0,0E0,0E0,0E0,0E0,0E0,0E0,0E0,0E0,0E0,0E0,0E0,0E0,0E0,0E0,0E0,0E0,0E0,0E0],"parents":[2147483647,0,0,1,1,2,2,3,3,4,4,5,5,6,6,7,7,8,8,9,9,10,10,11,11,12,12,13,13,14,14,15,15,16,16,17,17,18,18,19,19,20,20,21,21,22,22,23,23,24,24,26,26,27,27,29,29,30,30],"right_children":[2,4,6,8,10,12,14,16,18,20,22,24,26,28,30,32,34,36,38,40,42,44,46,48,50,-1,52,54,-1,56,58,-1,-1,-1,-1,-1,-1,-1,-1,-1,-1,-1,-1,-1,-1,-1,-1,-1,-1,-1,-1,-1,-1,-1,-1,-1,-1,-1,-1],"split_conditions":[7.328489E-1,-5.6065667E-1,-2.4579157E-1,-2.240382E-1,-1.7632419E-1,4.5108283E-1,1.208416E0,1.518004E-1,5.3979594E-1,-2.5008315E-1,1.9498251E-2,-7.8448397E-1,-9.3643856E-1,8.679338E-1,-1.7632419E-1,1.6591072E0,-3.9952267E-2,-2.0282884E-1,-5.3142095E-1,-6.9647527E-1,-2.37986E0,-3.8416556E-1,-1.2805065E0,-2.5326723E-1,-5.456614E-1,2.4588953E-3,7.585155E-1,1.3035861E0,-7.401987E-2,6.471855E-1,-7.6285464E-1,-3.0342087E-2,4.7613103E-2,2.5752587E-2,-6.4748995E-2,2.9038826E-2,-4.5405034E-2,1.4655202E-2,6.333467E-2,3.05249E-2,-2.9076133E-2,5.3131163E-2,-5.055824E-2,-2.9498965E-2,2.0092407E-2,-5.142493E-2,6.724608E-2,2.1586275E-2,-7.005205E-2,2.1820834E-2,4.898904E-2,6.6572934E-2,4.5800548E-2,-2.224267E-2,3.726129E-2,8.831746E-3,4.1687906E-2,-1.0991966E-3,6.776397E-2],"split_indices":[16,9,9,6,13,15,16,14,15,11,16,6,14,11,13,4,11,11,4,7,3,6,10,7,7,0,3,14,0,15,4,0,0,0,0,0,0,0,0,0,0,0,0,0,0,0,0,0,0,0,0,0,0,0,0,0,0,0,0],"split_type":[0,0,0,0,0,0,0,0,0,0,0,0,0,0,0,0,0,0,0,0,0,0,0,0,0,0,0,0,0,0,0,0,0,0,0,0,0,0,0,0,0,0,0,0,0,0,0,0,0,0,0,0,0,0,0,0,0,0,0],"sum_hessian":[1.1404359E3,8.290538E2,3.113822E2,3.1138873E2,5.17665E2,1.7304579E2,1.3833641E2,1.6863438E2,1.4275435E2,4.476036E2,7.00614E1,6.547466E1,1.0757114E2,2.2438808E1,1.15897606E2,8.658183E1,8.205256E1,9.8109886E1,4.4644466E1,1.850793E2,2.6252432E2,5.582504E1,1.42363615E1,5.4220843E0,6.005258E1,1.2027676E0,1.0636836E2,1.805174E1,4.387068E0,9.157039E1,2.4327219E1,8.074691E1,5.834922E0,7.534469E1,6.707866E0,8.335944E1,1.4750448E1,1.163954E1,3.300493E1,1.3279389E1,1.7179991E2,2.6702588E0,2.5985403E2,2.3392746E1,3.2432297E1,1.4535906E0,1.278277E1,3.7033422E0,1.718742E0,2.0211166E1,3.9841415E1,8.5079124E1,2.128924E1,1.1259459E1,6.792282E0,4.5335262E1,4.6235123E1,1.1798275E0,2.3147392E1],"tree_param":{"num_deleted":"0","num_feature":"36","num_nodes":"59","size_leaf_vector":"1"}},{"base_weights":[-1.6879762E-2,-3.6777952E-1,6.2767047E-1,8.58042E-2,-7.2877336E-1,4.74131E-1,1.2083879E0,-9.2175856E-2,7.62768E-1,-4.1457048E-1,-9.71439E-1,6.936762E-1,-3.6382468E-3,1.2875093E0,2.1543814E-1,7.4491704E-1,-2.3561166E-1,1.3420051E0,4.7919053E-1,-9.5012546E-1,-2.1036914E-2,-1.0142272E0,5.4227644E-1,9.2304724E-1,2.0623052E-1,9.913537E-2,-1.2910846E0,6.946712E-1,1.4126797E0,8.125601E-1,-6.376504E-2,4.198392E-2,-5.8117043E-2,-5.8280565E-2,-5.8970093E-3,7.035509E-2,7.0783654E-3,4.7326107E-2,2.7712432E-3,-5.2689828E-2,1.1070468E-2,-4.0009268E-2,1.3719383E-2,-6.067537E-2,-3.9548744E-2,6.0513448E-2,-5.0039526E-2,2.9864019E-2,5.3943563E-2,-7.0283203E-3,4.1988473E-2,-1.19895525E-2,2.4862204E-2,5.835471E-3,-7.878881E-2,-3.6116544E-2,4.9134273E-2,7.199865E-2,6.379186E-4,-1.4649465E-2,6.137541E-2],"categories":[],"categories_nodes":[],"categories_segments":[],"categories_sizes":[],"default_left":[0,0,0,0,0,0,0,0,0,0,0,0,0,0,0,0,0,0,0,0,0,0,0,0,0,0,0,0,0,0,0,0,0,0,0,0,0,0,0,0,0,0,0,0,0,0,0,0,0,0,0,0,0,0,0,0,0,0,0,0,0],"id":10,"left_children":[1,3,5,7,9,11,13,15,17,19,21,23,25,27,29,31,33,35,37,39,41,43,45,47,49,51,53,55,57,59,-1,-1,-1,-1,-1,-1,-1,-1,-1,-1,-1,-1,-1,-1,-1,-1,-1,-1,-1,-1,-1,-1,-1,-1,-1,-1,-1,-1,-1,-1,-1],"loss_changes":[2.5507881E2,1.19629456E2,3.487523E1,3.9168526E1,3.0607864E1,3.3156433E1,6.203224E0,3.1134348E1,1.0471031E1,3.7701294E1,1.5365082E1,2.402314E1,1.3426978E1,4.673126E0,7.5244274E0,7.8363934E0,2.4034771E1,1.4951973E0,9.251295E0,9.438004E0,2.4202261E1,8.952393E0,8.364249E0,6.8167114E0,1.5626472E1,1.2803698E1,3.1904526E0,6.934177E0,2.3485947E0,3.0272794E0,0E0,0E0,0E0,0E0,0E0,0E0,0E0,0E0,0E0,0E0,0E0,0E0,0E0,0E0,0E0,0E0,0E0,0E0,0E0,0E0,0E0,0E0,0E0,0E0,0E0,0E0,0E0,0E0,0E0,0E0,0E0],"parents":[2147483647,0,0,1,1,2,2,3,3,4,4,5,5,6,6,7,7,8,8,9,9,10,10,11,11,12,12,13,13,14,14,15,15,16,16,17,17,18,18,19,19,20,20,21,21,22,22,23,23,24,24,25,25,26,26,27,27,28,28,29,29],"right_children":[2,4,6,8,10,12,14,16,18,20,22,24,26,28,30,32,34,36,38,40,42,44,46,48,50,52,54,56,58,60,-1,-1,-1,-1,-1,-1,-1,-1,-1,-1,-1,-1,-1,-1,-1,-1,-1,-1,-1,-1,-1,-1,-1,-1,-1,-1,-1,-1,-1,-1,-1],"split_conditions":[6.323731E-1,-2.4579157E-1,1.6719476E0,2.0324174E-1,-2.7769235E-1,1.7402856E-1,9.0006936E-1,-1.2663491E0,-1.4002969E0,-4.7969592E-1,4.147424E0,3.5481438E-1,2.2120774E0,-3.2865873E-1,-2.3787805E-1,1E0,-7.542145E-2,1E0,-4.808771E-1,9.6001595E-1,-5.9998107E-1,1E0,-3.3985773E-1,1.0295405E0,1.04406E0,6.471855E-1,-1.2681241E0,-5.953484E-1,1.6373434E0,-1.5507065E-1,-6.376504E-2,4.198392E-2,-5.8117043E-2,-5.8280565E-2,-5.8970093E-3,7.035509E-2,7.0783654E-3,4.7326107E-2,2.7712432E-3,-5.2689828E-2,1.1070468E-2,-4.0009268E-2,1.3719383E-2,-6.067537E-2,-3.9548744E-2,6.0513448E-2,-5.0039526E-2,2.9864019E-2,5.3943563E-2,-7.0283203E-3,4.1988473E-2,-1.19895525E-2,2.4862204E-2,5.835471E-3,-7.878881E-2,-3.6116544E-2,4.9134273E-2,7.199865E-2,6.379186E-4,-1.4649465E-2,6.137541E-2],"split_indices":[14,9,12,13,1,9,4,1,9,14,4,1,7,15,7,35,10,26,5,15,2,17,2,14,15,15,5,4,1,2,0,0,0,0,0,0,0,0,0,0,0,0,0,0,0,0,0,0,0,0,0,0,0,0,0,0,0,0,0,0,0],"split_type":[0,0,0,0,0,0,0,0,0,0,0,0,0,0,0,0,0,0,0,0,0,0,0,0,0,0,0,0,0,0,0,0,0,0,0,0,0,0,0,0,0,0,0,0,0,0,0,0,0,0,0,0,0,0,0,0,0,0,0,0,0],"sum_hessian":[1.1257858E3,7.2922015E2,3.9656555E2,3.235041E2,4.0571606E2,3.1507687E2,8.148867E1,2.5684183E2,6.666226E1,1.779784E2,2.2773766E2,2.1556723E2,9.950965E1,7.519985E1,6.288825E0,3.6958466E1,2.1988338E2,2.0682875E1,4.597939E1,7.478715E1,1.0319125E2,2.2179808E2,5.939581E0,1.4598111E2,6.958611E1,9.300805E1,6.501601E0,1.4251401E1,6.094845E1,4.8150597E0,1.4737651E0,3.5742367E1,1.2161006E0,2.369643E1,1.9618694E2,1.9455687E1,1.2271872E0,2.127908E1,2.470031E1,6.879946E1,5.9876833E0,2.7899893E1,7.529136E1,1.1484715E2,1.0695093E2,4.2956643E0,1.6439167E0,4.8797592E1,9.7183525E1,4.5472664E1,2.411345E1,5.0452995E1,4.2555054E1,1.1928804E0,5.3087206E0,2.152642E0,1.2098759E1,5.9754833E1,1.1936141E0,1.3942533E0,3.4208064E0],"tree_param":{"num_deleted":"0","num_feature":"36","num_nodes":"61","size_leaf_vector":"1"}},{"base_weights":[1.0265406E-2,-2.8307098E-1,7.8242934E-1,1.4625474E-2,-7.834481E-1,9.860437E-1,3.6766654E-1,-1.508942E-1,7.856601E-1,-8.4443396E-1,1.0392876E0,1.1002518E0,6.256181E-1,1.1540389E0,1.3533697E-1,-3.183303E-1,4.5163983E-1,8.831636E-1,-7.8467435E-1,-1.277639E0,-6.4635646E-1,-1.2366593E-2,6.6220365E-2,1.1267076E0,3.4877965E-1,9.071647E-2,1.0727024E0,-3.6745228E-2,1.287659E0,-7.4863577E-1,3.242236E-1,8.008922E-4,-3.008056E-2,-1.1705047E-2,4.101978E-2,2.311713E-2,5.2701052E-2,-7.7225104E-2,2.572374E-2,-2.1786269E-2,-6.9289684E-2,-9.251722E-3,-4.345223E-2,2.7277218E-3,5.717505E-2,-2.3629244E-2,5.7557296E-2,3.4854066E-2,-3.8837772E-2,6.483274E-2,2.0577572E-2,-2.5364766E-3,-3.0491228E-4,9.98957E-3,6.9928244E-2,-8.7571E-3,-7.5780876E-2,-6.976044E-2,1.9479964E-2],"categories":[],"categories_nodes":[],"categories_segments":[],"categories_sizes":[],"default_left":[0,0,0,0,0,0,0,0,0,0,0,0,0,0,0,0,0,0,0,0,0,0,0,0,0,0,0,0,0,0,0,0,0,0,0,0,0,0,0,0,0,0,0,0,0,0,0,0,0,0,0,0,0,0,0,0,0,0,0],"id":11,"left_children":[1,3,5,7,9,11,13,15,17,19,21,23,25,27,29,31,33,35,37,39,41,-1,-1,43,45,47,49,51,53,55,57,-1,-1,-1,-1,-1,-1,-1,-1,-1,-1,-1,-1,-1,-1,-1,-1,-1,-1,-1,-1,-1,-1,-1,-1,-1,-1,-1,-1],"loss_changes":[2.5619135E2,1.2211536E2,2.5934372E1,6.583366E1,3.4868927E1,7.884369E0,1.8867136E1,4.299585E1,1.46515045E1,2.461084E1,4.1236744E0,2.7248993E0,1.2441181E1,3.8046436E0,1.3852567E1,3.1547394E1,2.36535E1,5.7180862E0,6.5783043E0,7.772415E0,2.0945E1,0E0,0E0,2.657257E0,5.013457E0,1.3672181E1,3.6813812E0,1.1283918E-3,2.2855606E0,6.179743E0,8.17137E0,0E0,0E0,0E0,0E0,0E0,0E0,0E0,0E0,0E0,0E0,0E0,0E0,0E0,0E0,0E0,0E0,0E0,0E0,0E0,0E0,0E0,0E0,0E0,0E0,0E0,0E0,0E0,0E0],"parents":[2147483647,0,0,1,1,2,2,3,3,4,4,5,5,6,6,7,7,8,8,9,9,10,10,11,11,12,12,13,13,14,14,15,15,16,16,17,17,18,18,19,19,20,20,23,23,24,24,25,25,26,26,27,27,28,28,29,29,30,30],"right_children":[2,4,6,8,10,12,14,16,18,20,22,24,26,28,30,32,34,36,38,40,42,-1,-1,44,46,48,50,52,54,56,58,-1,-1,-1,-1,-1,-1,-1,-1,-1,-1,-1,-1,-1,-1,-1,-1,-1,-1,-1,-1,-1,-1,-1,-1,-1,-1,-1,-1],"split_conditions":[7.328489E-1,3.3146113E-1,1.7402856E-1,1.6719476E0,3.6951787E0,6.5257907E-1,-1.2235332E0,7.9192793E-1,1.4329951E0,-6.088054E-1,-4.982434E-1,7.724198E-1,5.8648705E-1,-1.1522101E0,1.208416E0,-2.9910028E-1,2.8678471E-2,-2.6522547E-1,3.6951787E0,-1.786377E0,-2.5008315E-1,-1.2366593E-2,6.6220365E-2,-1.2144558E0,1.6808952E0,-5.241166E-1,1E0,1.0935135E0,-6.6641726E-2,2.124839E-1,-1.6323913E0,8.008922E-4,-3.008056E-2,-1.1705047E-2,4.101978E-2,2.311713E-2,5.2701052E-2,-7.7225104E-2,2.572374E-2,-2.1786269E-2,-6.9289684E-2,-9.251722E-3,-4.345223E-2,2.7277218E-3,5.717505E-2,-2.3629244E-2,5.7557296E-2,3.4854066E-2,-3.8837772E-2,6.483274E-2,2.0577572E-2,-2.5364766E-3,-3.0491228E-4,9.98957E-3,6.9928244E-2,-8.7571E-3,-7.5780876E-2,-6.976044E-2,1.9479964E-2],"split_indices":[16,9,9,12,12,1,1,15,1,15,4,11,15,2,16,1,14,14,12,14,11,0,0,14,14,7,33,0,14,5,10,0,0,0,0,0,0,0,0,0,0,0,0,0,0,0,0,0,0,0,0,0,0,0,0,0,0,0,0],"split_type":[0,0,0,0,0,0,0,0,0,0,0,0,0,0,0,0,0,0,0,0,0,0,0,0,0,0,0,0,0,0,0,0,0,0,0,0,0,0,0,0,0,0,0,0,0,0,0,0,0,0,0,0,0,0,0,0,0,0,0],"sum_hessian":[1.1290907E3,8.1870667E2,3.1038406E2,5.139223E2,3.0478436E2,2.0725941E2,1.0312464E2,4.2375766E2,9.016468E1,2.9543625E2,9.348106E0,1.5582916E2,5.143025E1,2.2614265E1,8.0510376E1,3.319773E2,9.178034E1,8.530557E1,4.859107E0,9.0988884E1,2.0444736E2,1.7198261E0,7.6282797E0,1.5004736E2,5.781797E0,2.3963133E1,2.7467117E1,2.3547158E0,2.025955E1,1.3652847E1,6.685753E1,1.5269699E2,1.7928032E2,3.2223133E1,5.9557205E1,2.5703646E1,5.9601925E1,2.9467802E0,1.9123268E0,1.093053E1,8.005835E1,6.715648E1,1.3729088E2,2.3795207E0,1.4766785E2,3.060175E0,2.721622E0,1.4219848E1,9.743285E0,1.979928E1,7.667836E0,1.1669478E0,1.1877681E0,2.1335137E0,1.8126036E1,8.514597E0,5.138251E0,1.703836E0,6.5153694E1],"tree_param":{"num_deleted":"0","num_feature":"36","num_nodes":"59","size_leaf_vector":"1"}},{"base_weights":[-1.025012E-2,-3.6751187E-1,5.3855526E-1,-5.130836E-1,5.267705E-1,6.5097094E-1,-7.913327E-2,-2.5578612E-1,-9.439446E-1,7.688971E-1,-3.2986408E-1,2.8839338E-1,7.8283286E-1,-6.7118376E-1,4.536177E-1,9.529196E-2,-4.9492875E-1,-1.1494629E0,-6.199153E-1,9.836015E-1,-1.1393357E-1,7.229967E-1,-1.0964012E0,7.399264E-1,-1.1458168E-1,8.0730873E-1,-9.166244E-1,-1.0122591E0,2.7278176E-1,8.451177E-1,-9.0743385E-2,-1.2896547E-2,1.876403E-2,-4.5748524E-2,-8.577584E-3,-6.2098783E-2,-2.0138377E-2,-3.856826E-2,3.249238E-2,3.3643275E-2,7.125783E-2,-5.3871382E-2,3.963956E-2,-5.3851906E-4,6.844143E-2,-7.38641E-2,4.3105455E-3,1.7332552E-2,5.9484374E-2,4.123431E-2,-2.1190839E-2,4.7343444E-2,2.6899058E-2,-6.9302596E-2,1.03257885E-2,4.650757E-3,-6.866705E-2,3.417823E-2,-5.2757066E-2,1.5288441E-2,6.1341055E-2,-8.431534E-2,1.8793112E-2],"categories":[],"categories_nodes":[],"categories_segments":[],"categories_sizes":[],"default_left":[0,0,0,0,0,0,0,0,0,0,0,0,0,0,0,0,0,0,0,0,0,0,0,0,0,0,0,0,0,0,0,0,0,0,0,0,0,0,0,0,0,0,0,0,0,0,0,0,0,0,0,0,0,0,0,0,0,0,0,0,0,0,0],"id":12,"left_children":[1,3,5,7,9,11,13,15,17,19,21,23,25,27,29,31,33,35,37,39,41,43,45,47,49,51,53,55,57,59,61,-1,-1,-1,-1,-1,-1,-1,-1,-1,-1,-1,-1,-1,-1,-1,-1,-1,-1,-1,-1,-1,-1,-1,-1,-1,-1,-1,-1,-1,-1,-1,-1],"loss_changes":[2.2101828E2,8.915396E1,3.0915573E1,6.490938E1,2.0180973E1,1.775827E1,2.2172167E1,3.1055084E1,1.3895538E1,1.4366791E1,1.8444021E1,1.8626137E1,1.2189392E1,1.0978405E1,7.9810357E0,1.49791155E1,2.9705246E1,8.691116E0,1.7290485E1,7.3552704E0,1.4489612E1,4.6670475E0,6.007311E0,8.111221E0,1.6240616E1,9.709824E0,2.5935566E0,9.957521E0,5.9636483E0,4.0862246E0,1.2857448E1,0E0,0E0,0E0,0E0,0E0,0E0,0E0,0E0,0E0,0E0,0E0,0E0,0E0,0E0,0E0,0E0,0E0,0E0,0E0,0E0,0E0,0E0,0E0,0E0,0E0,0E0,0E0,0E0,0E0,0E0,0E0,0E0],"parents":[2147483647,0,0,1,1,2,2,3,3,4,4,5,5,6,6,7,7,8,8,9,9,10,10,11,11,12,12,13,13,14,14,15,15,16,16,17,17,18,18,19,19,20,20,21,21,22,22,23,23,24,24,25,25,26,26,27,27,28,28,29,29,30,30],"right_children":[2,4,6,8,10,12,14,16,18,20,22,24,26,28,30,32,34,36,38,40,42,44,46,48,50,52,54,56,58,60,62,-1,-1,-1,-1,-1,-1,-1,-1,-1,-1,-1,-1,-1,-1,-1,-1,-1,-1,-1,-1,-1,-1,-1,-1,-1,-1,-1,-1,-1,-1,-1,-1],"split_conditions":[5.013078E-1,1.3772354E0,8.037588E-1,-6.7098364E-2,7.8491896E-1,-7.652673E-2,1.0692573E0,-5.034486E-1,1.633317E-1,8.562363E-1,-3.903188E-1,-4.700929E-1,3.7448385E0,1.3017898E0,-2.9327905E-1,-3.248006E-1,-2.959412E-1,1.0067071E0,3.2258242E-1,2.498127E0,-6.4900643E-3,-5.2606624E-1,1.0661464E0,-8.633992E-1,-1.0814624E0,-3.507466E-1,1E0,-1.0950856E0,-1.4397451E-1,-2.6736432E-1,-2.4403372E-1,-1.2896547E-2,1.876403E-2,-4.5748524E-2,-8.577584E-3,-6.2098783E-2,-2.0138377E-2,-3.856826E-2,3.249238E-2,3.3643275E-2,7.125783E-2,-5.3871382E-2,3.963956E-2,-5.3851906E-4,6.844143E-2,-7.38641E-2,4.3105455E-3,1.7332552E-2,5.9484374E-2,4.123431E-2,-2.1190839E-2,4.7343444E-2,2.6899058E-2,-6.9302596E-2,1.03257885E-2,4.650757E-3,-6.866705E-2,3.417823E-2,-5.2757066E-2,1.5288441E-2,6.1341055E-2,-8.431534E-2,1.8793112E-2],"split_indices":[14,6,9,11,1,15,14,1,2,9,2,5,7,8,7,14,4,15,14,6,15,2,9,5,1,9,27,1,6,2,7,0,0,0,0,0,0,0,0,0,0,0,0,0,0,0,0,0,0,0,0,0,0,0,0,0,0,0,0,0,0,0,0],"split_type":[0,0,0,0,0,0,0,0,0,0,0,0,0,0,0,0,0,0,0,0,0,0,0,0,0,0,0,0,0,0,0,0,0,0,0,0,0,0,0,0,0,0,0,0,0,0,0,0,0,0,0,0,0,0,0,0,0,0,0,0,0,0,0],"sum_hessian":[1.1252484E3,6.8176373E2,4.434847E2,5.8668854E2,9.507519E1,3.7515488E2,6.832985E1,3.6832776E2,2.183608E2,7.420396E1,2.0871231E1,1.008999E2,2.7425497E2,3.2240677E1,3.6089172E1,1.4948088E2,2.1884686E2,1.3205583E2,8.630496E1,5.9596054E1,1.4607903E1,8.817265E0,1.20539665E1,4.7188778E1,5.3711124E1,2.708787E2,3.3762736E0,2.3630215E1,8.610461E0,2.0670572E1,1.5418599E1,6.613115E1,8.334973E1,9.4399635E1,1.2444722E2,1.1690807E2,1.5147757E1,7.7458664E1,8.846302E0,3.64611E1,2.313495E1,6.9909697E0,7.616933E0,4.5879507E0,4.2293143E0,8.929044E0,3.1249228E0,2.6119972E1,2.1068808E1,1.2890569E1,4.0820557E1,1.7676628E2,9.411241E1,2.215992E0,1.1602817E0,6.001615E0,1.7628601E1,6.946769E0,1.6636919E0,9.312717E0,1.1357855E1,2.8972912E0,1.2521308E1],"tree_param":{"num_deleted":"0","num_feature":"36","num_nodes":"63","size_leaf_vector":"1"}},{"base_weights":[-5.111948E-3,-3.5105917E-1,6.32702E-1,-5.013855E-1,5.6761456E-1,8.5216093E-1,3.101878E-1,2.2555418E-2,-7.503471E-1,9.851053E-1,2.0139799E-1,9.065745E-1,-1.21488616E-1,-3.3763617E-1,6.180372E-1,-1.023579E-1,6.867556E-1,-8.491286E-1,1.9338085E-1,1.0563045E0,-2.0055664E-1,-9.657429E-2,9.058734E-1,5.016526E-1,1.0108576E0,-8.8249767E-1,5.5933356E-1,-7.245959E-1,5.1790595E-1,4.3883544E-1,6.935719E-2,-4.066888E-2,1.6140192E-3,6.4402185E-2,1.0240115E-2,-3.3000436E-2,-5.1799215E-2,-4.527902E-2,2.2800922E-2,8.1987836E-4,5.7169016E-2,-5.996096E-2,4.2517234E-2,-4.2826157E-2,1.3428658E-2,6.080552E-2,9.6645625E-4,5.8645137E-2,9.407496E-3,-1.0133909E-2,5.3142037E-2,-8.006769E-2,1.0235743E-3,4.7652658E-2,-2.9149044E-2,-4.2398218E-2,6.6736355E-2,-4.0423945E-2,4.9799126E-2,4.327593E-3,4.210181E-2],"categories":[],"categories_nodes":[],"categories_segments":[],"categories_sizes":[],"default_left":[0,0,0,0,0,0,0,0,0,0,0,0,0,0,0,0,0,0,0,0,0,0,0,0,0,0,0,0,0,0,0,0,0,0,0,0,0,0,0,0,0,0,0,0,0,0,0,0,0,0,0,0,0,0,0,0,0,0,0,0,0],"id":13,"left_children":[1,3,5,7,9,11,13,15,17,19,21,23,25,27,29,31,33,35,37,39,41,43,45,47,49,51,53,55,57,59,-1,-1,-1,-1,-1,-1,-1,-1,-1,-1,-1,-1,-1,-1,-1,-1,-1,-1,-1,-1,-1,-1,-1,-1,-1,-1,-1,-1,-1,-1,-1],"loss_changes":[2.465328E2,1.0032281E2,2.754535E1,8.1288376E1,1.544772E1,1.2467072E1,3.2251877E1,1.6801777E1,3.954039E1,4.227001E0,1.1794781E1,8.825485E0,7.3465443E0,1.7724077E1,1.4451221E1,1.6358932E1,9.024685E0,1.2834808E1,1.2199749E1,4.058563E0,4.729483E0,1.1356861E1,4.5625515E0,9.722033E0,1.1240143E1,4.338623E0,3.9706833E0,1.0404865E1,1.1524022E1,1.2722563E1,0E0,0E0,0E0,0E0,0E0,0E0,0E0,0E0,0E0,0E0,0E0,0E0,0E0,0E0,0E0,0E0,0E0,0E0,0E0,0E0,0E0,0E0,0E0,0E0,0E0,0E0,0E0,0E0,0E0,0E0,0E0],"parents":[2147483647,0,0,1,1,2,2,3,3,4,4,5,5,6,6,7,7,8,8,9,9,10,10,11,11,12,12,13,13,14,14,15,15,16,16,17,17,18,18,19,19,20,20,21,21,22,22,23,23,24,24,25,25,26,26,27,27,28,28,29,29],"right_children":[2,4,6,8,10,12,14,16,18,20,22,24,26,28,30,32,34,36,38,40,42,44,46,48,50,52,54,56,58,60,-1,-1,-1,-1,-1,-1,-1,-1,-1,-1,-1,-1,-1,-1,-1,-1,-1,-1,-1,-1,-1,-1,-1,-1,-1,-1,-1,-1,-1,-1,-1],"split_conditions":[6.323731E-1,1.3772354E0,-2.4579157E-1,-6.656117E-1,-2.4579157E-1,2.1782212E0,9.9776715E-1,1.6719476E0,1.6719476E0,9.301981E-1,3.2187E0,-1.9792362E-1,5.8648705E-1,1.762802E-1,1.6719476E0,2.186193E-1,-1.295342E0,-6.7098364E-2,-9.141606E-1,1.7039903E-3,2.5781906E0,1E0,-3.8874355E-1,-8.7494475E-1,-8.645476E-1,-5.577389E-1,1E0,1.6958766E0,-7.550894E-1,3.0883238E-1,6.935719E-2,-4.066888E-2,1.6140192E-3,6.4402185E-2,1.0240115E-2,-3.3000436E-2,-5.1799215E-2,-4.527902E-2,2.2800922E-2,8.1987836E-4,5.7169016E-2,-5.996096E-2,4.2517234E-2,-4.2826157E-2,1.3428658E-2,6.080552E-2,9.6645625E-4,5.8645137E-2,9.407496E-3,-1.0133909E-2,5.3142037E-2,-8.006769E-2,1.0235743E-3,4.7652658E-2,-2.9149044E-2,-4.2398218E-2,6.6736355E-2,-4.0423945E-2,4.9799126E-2,4.327593E-3,4.210181E-2],"split_indices":[14,6,9,9,9,7,14,12,12,2,6,15,15,6,12,10,9,11,10,10,6,32,10,15,6,11,25,9,10,0,0,0,0,0,0,0,0,0,0,0,0,0,0,0,0,0,0,0,0,0,0,0,0,0,0,0,0,0,0,0,0],"split_type":[0,0,0,0,0,0,0,0,0,0,0,0,0,0,0,0,0,0,0,0,0,0,0,0,0,0,0,0,0,0,0,0,0,0,0,0,0,0,0,0,0,0,0,0,0,0,0,0,0,0,0,0,0,0,0,0,0,0,0,0,0],"sum_hessian":[1.1152961E3,7.233851E2,3.91911E2,6.220506E2,1.0133446E2,2.3223886E2,1.5967216E2,2.0066322E2,4.213874E2,4.6562626E1,5.477183E1,2.2001212E2,1.2226747E1,5.1403755E1,1.0826842E2,1.6961107E2,3.1052145E1,3.8155017E2,3.983722E1,4.4027847E1,2.5347762E0,3.909761E1,1.5674219E1,4.624756E1,1.7376456E2,5.633506E0,6.5932407E0,3.5500168E1,1.5903587E1,8.9082726E1,1.918569E1,2.620138E1,1.434097E2,1.3071503E1,1.7980642E1,1.9187865E2,1.8967154E2,7.21197E0,3.2625248E1,3.49361E0,4.0534237E1,1.2273253E0,1.3074508E0,1.22523E1,2.6845312E1,1.1335676E1,4.3385434E0,1.3850515E1,3.2397045E1,7.018553E0,1.66746E2,2.7059002E0,2.9276056E0,5.026461E0,1.5667794E0,3.4048637E1,1.4515291E0,4.030416E0,1.1873172E1,4.819157E1,4.0891155E1],"tree_param":{"num_deleted":"0","num_feature":"36","num_nodes":"61","size_leaf_vector":"1"}},{"base_weights":[6.308529E-3,-2.1869673E-1,7.8780794E-1,1.7649506E-1,-5.859536E-1,9.734177E-1,4.0927774E-1,-2.3751101E-1,3.6717725E-1,-6.760555E-1,5.5510706E-1,-6.0168188E-2,9.968014E-1,1.3976714E-1,8.4293497E-1,-3.659446E-1,1.0791693E0,2.3608711E-1,7.7371925E-1,-8.018423E-1,-2.4290758E-1,-3.307537E-1,8.0441296E-1,1.0472089E0,1.8635428E-1,-6.8795204E-2,1.1765605E0,9.313772E-1,-2.4891991E-2,-7.996472E-2,-1.2385872E-2,-1.35603715E-2,6.401189E-2,-2.0737737E-2,1.6506132E-2,5.5248763E-2,2.5900185E-2,-4.334229E-2,2.063986E-3,-3.1369265E-2,5.3016488E-3,-6.4938895E-2,1.6181726E-2,1.7183026E-2,5.9989847E-2,5.451822E-2,1.7702162E-2,5.5909343E-2,-3.78618E-2,-4.6968345E-2,1.256487E-2,6.614625E-2,2.024946E-2,5.1500358E-2,-2.3915073E-2],"categories":[],"categories_nodes":[],"categories_segments":[],"categories_sizes":[],"default_left":[0,0,0,0,0,0,0,0,0,0,0,0,0,0,0,0,0,0,0,0,0,0,0,0,0,0,0,0,0,0,0,0,0,0,0,0,0,0,0,0,0,0,0,0,0,0,0,0,0,0,0,0,0,0,0],"id":14,"left_children":[1,3,5,7,9,11,13,15,17,19,21,-1,23,25,27,29,31,33,35,37,39,41,43,45,47,49,51,53,-1,-1,-1,-1,-1,-1,-1,-1,-1,-1,-1,-1,-1,-1,-1,-1,-1,-1,-1,-1,-1,-1,-1,-1,-1,-1,-1],"loss_changes":[1.9530133E2,1.2526921E2,1.7046112E1,3.294109E1,4.6355637E1,9.642654E0,9.631447E0,2.2690159E1,1.5023468E1,2.2413467E1,7.6158037E0,0E0,6.5315247E0,1.1464263E1,4.2313538E0,1.7228724E1,3.5974407E0,1.3429769E1,5.2835884E0,1.7635696E1,1.2787288E1,5.4990892E0,4.3719044E0,4.244583E0,1.0393833E1,1.2712257E1,4.660902E-1,4.685316E0,0E0,0E0,0E0,0E0,0E0,0E0,0E0,0E0,0E0,0E0,0E0,0E0,0E0,0E0,0E0,0E0,0E0,0E0,0E0,0E0,0E0,0E0,0E0,0E0,0E0,0E0,0E0],"parents":[2147483647,0,0,1,1,2,2,3,3,4,4,5,5,6,6,7,7,8,8,9,9,10,10,12,12,13,13,14,14,15,15,16,16,17,17,18,18,19,19,20,20,21,21,22,22,23,23,24,24,25,25,26,26,27,27],"right_children":[2,4,6,8,10,12,14,16,18,20,22,-1,24,26,28,30,32,34,36,38,40,42,44,46,48,50,52,54,-1,-1,-1,-1,-1,-1,-1,-1,-1,-1,-1,-1,-1,-1,-1,-1,-1,-1,-1,-1,-1,-1,-1,-1,-1,-1,-1],"split_conditions":[1.208416E0,-2.4579157E-1,1.7402856E-1,-2.8111216E-1,2.6835632E0,-1.6672268E0,9.6001595E-1,1.5373628E0,6.603321E-1,7.1722215E-1,-5.610506E-1,-6.0168188E-2,2.202844E0,1.6719476E0,2.928021E0,-1.4959365E0,-5.815919E-1,-7.8448397E-1,-1.1379094E0,1.7581863E0,9.740465E-2,-6.2435657E-1,-6.4900643E-3,1.5757344E0,-7.162265E-1,-3.184511E-1,1.1240665E0,1.2636268E0,-2.4891991E-2,-7.996472E-2,-1.2385872E-2,-1.35603715E-2,6.401189E-2,-2.0737737E-2,1.6506132E-2,5.5248763E-2,2.5900185E-2,-4.334229E-2,2.063986E-3,-3.1369265E-2,5.3016488E-3,-6.4938895E-2,1.6181726E-2,1.7183026E-2,5.9989847E-2,5.451822E-2,1.7702162E-2,5.5909343E-2,-3.78618E-2,-4.6968345E-2,1.256487E-2,6.614625E-2,2.024946E-2,5.1500358E-2,-2.3915073E-2],"split_indices":[16,9,9,14,12,14,15,6,12,15,7,0,7,12,11,15,4,6,9,2,8,6,15,5,5,11,5,5,0,0,0,0,0,0,0,0,0,0,0,0,0,0,0,0,0,0,0,0,0,0,0,0,0,0,0],"split_type":[0,0,0,0,0,0,0,0,0,0,0,0,0,0,0,0,0,0,0,0,0,0,0,0,0,0,0,0,0,0,0,0,0,0,0,0,0,0,0,0,0,0,0,0,0,0,0,0,0,0,0,0,0,0,0],"sum_hessian":[1.1086871E3,8.613981E2,2.4728911E2,4.151691E2,4.4622897E2,1.6487312E2,8.241599E1,1.3084184E2,2.8432727E2,4.1394968E2,3.2279285E1,1.2159814E0,1.6365714E2,5.1643024E1,3.0772968E1,1.19871254E2,1.0970589E1,2.161954E2,6.813185E1,3.2013174E2,9.381795E1,7.0174446E0,2.5261843E1,1.5379912E2,9.858009E0,4.3771545E1,7.8714795E0,2.9155136E1,1.617832E0,9.38975E0,1.1048151E2,1.3765874E0,9.594002E0,2.6862576E1,1.8933282E2,2.8234953E1,3.98969E1,2.9719064E2,2.2941084E1,4.4256382E1,4.956156E1,2.4332552E0,4.5841894E0,1.2529748E1,1.2732096E1,1.442456E2,9.553526E0,4.866809E0,4.9912E0,1.1247228E1,3.2524315E1,6.0157304E0,1.8557492E0,2.750037E1,1.6547652E0],"tree_param":{"num_deleted":"0","num_feature":"36","num_nodes":"55","size_leaf_vector":"1"}},{"base_weights":[-8.7761396E-4,-2.548419E-1,6.683875E-1,6.7946445E-3,-7.159362E-1,9.3459517E-1,3.7208268E-1,-1.3386166E-1,6.8618286E-1,-7.866542E-1,4.3488517E-1,6.440175E-1,1.1065174E0,2.401127E-1,1.2023919E0,2.8328648E-1,-3.931641E-1,7.666227E-1,-4.8710325E-1,-4.990658E-1,-1.0089359E0,8.2663405E-1,-3.0900338E-1,9.113891E-1,-3.118768E-1,1.1215718E0,-5.166668E-3,3.714313E-1,-3.4385994E-1,3.53594E-1,6.970559E-2,2.4616197E-2,-4.579782E-3,-2.5748057E-2,9.726317E-3,-2.2638742E-2,4.1211404E-2,-7.470258E-2,4.359653E-2,-5.3019494E-2,-1.2616046E-2,-5.9135437E-2,-3.0940099E-2,5.5767853E-2,-1.993425E-2,5.5315334E-2,-4.5474667E-2,4.9699094E-2,-3.9916057E-2,1.5596968E-2,-8.213878E-2,5.8662552E-2,3.4742106E-2,-2.1785695E-2,2.405863E-2,-3.7178982E-2,1.9350825E-2,4.327657E-2,-2.1327768E-2],"categories":[],"categories_nodes":[],"categories_segments":[],"categories_sizes":[],"default_left":[0,0,0,0,0,0,0,0,0,0,0,0,0,0,0,0,0,0,0,0,0,0,0,0,0,0,0,0,0,0,0,0,0,0,0,0,0,0,0,0,0,0,0,0,0,0,0,0,0,0,0,0,0,0,0,0,0,0,0],"id":15,"left_children":[1,3,5,7,9,11,13,15,17,19,21,23,25,27,29,31,33,35,37,39,41,43,45,47,49,51,-1,53,55,57,-1,-1,-1,-1,-1,-1,-1,-1,-1,-1,-1,-1,-1,-1,-1,-1,-1,-1,-1,-1,-1,-1,-1,-1,-1,-1,-1,-1,-1],"loss_changes":[1.8779248E2,9.662836E1,2.3625671E1,4.901631E1,2.3939728E1,7.252182E0,1.5654001E1,4.60822E1,8.676762E0,1.698172E1,5.3349E0,1.6042652E1,1.9149551E0,9.850847E0,2.7135239E0,1.2857229E1,1.8889809E1,6.183922E0,9.864231E0,1.652243E1,9.661102E0,4.5801935E0,6.7348905E0,7.633148E0,1.2319805E1,1.3381729E0,0E0,9.421163E0,7.239811E0,2.354308E0,0E0,0E0,0E0,0E0,0E0,0E0,0E0,0E0,0E0,0E0,0E0,0E0,0E0,0E0,0E0,0E0,0E0,0E0,0E0,0E0,0E0,0E0,0E0,0E0,0E0,0E0,0E0,0E0,0E0],"parents":[2147483647,0,0,1,1,2,2,3,3,4,4,5,5,6,6,7,7,8,8,9,9,10,10,11,11,12,12,13,13,14,14,15,15,16,16,17,17,18,18,19,19,20,20,21,21,22,22,23,23,24,24,25,25,27,27,28,28,29,29],"right_children":[2,4,6,8,10,12,14,16,18,20,22,24,26,28,30,32,34,36,38,40,42,44,46,48,50,52,-1,54,56,58,-1,-1,-1,-1,-1,-1,-1,-1,-1,-1,-1,-1,-1,-1,-1,-1,-1,-1,-1,-1,-1,-1,-1,-1,-1,-1,-1,-1,-1],"split_conditions":[7.328489E-1,3.3146113E-1,-2.982691E-1,1.6719476E0,2.6835632E0,4.1372994E-1,1.6719476E0,-5.676724E-1,6.9073536E-2,-6.7098364E-2,3.4119117E-1,6.759332E-1,1.6529129E0,1.0515449E0,1.6839831E0,1E0,1.0533981E0,-1.4831812E0,1.5016328E0,-5.5277604E-1,-4.5622832E-1,1.8811221E-1,-1.2453144E0,2.0503485E0,-5.241166E-1,1.6165179E0,-5.166668E-3,-1.2130218E0,1.0954201E0,1.6019693E-1,6.970559E-2,2.4616197E-2,-4.579782E-3,-2.5748057E-2,9.726317E-3,-2.2638742E-2,4.1211404E-2,-7.470258E-2,4.359653E-2,-5.3019494E-2,-1.2616046E-2,-5.9135437E-2,-3.0940099E-2,5.5767853E-2,-1.993425E-2,5.5315334E-2,-4.5474667E-2,4.9699094E-2,-3.9916057E-2,1.5596968E-2,-8.213878E-2,5.8662552E-2,3.4742106E-2,-2.1785695E-2,2.405863E-2,-3.7178982E-2,1.9350825E-2,4.327657E-2,-2.1327768E-2],"split_indices":[16,9,9,12,12,15,12,1,9,11,1,1,1,1,16,33,15,3,15,15,10,0,2,10,7,10,0,10,15,1,0,0,0,0,0,0,0,0,0,0,0,0,0,0,0,0,0,0,0,0,0,0,0,0,0,0,0,0,0],"split_type":[0,0,0,0,0,0,0,0,0,0,0,0,0,0,0,0,0,0,0,0,0,0,0,0,0,0,0,0,0,0,0,0,0,0,0,0,0,0,0,0,0,0,0,0,0,0,0,0,0,0,0,0,0,0,0,0,0,0,0],"sum_hessian":[1.1028582E3,7.9993005E2,3.0292813E2,5.1097516E2,2.8895493E2,1.5843343E2,1.4449472E2,4.2399652E2,8.697863E1,2.7252472E2,1.6430206E1,6.065768E1,9.777574E1,1.2579064E2,1.8704075E1,1.6249428E2,2.6150223E2,8.172239E1,5.256242E0,1.20224E2,1.5230072E2,1.0689589E1,5.7406173E0,4.7435993E1,1.3221685E1,9.6646126E1,1.1296185E0,1.0299418E2,2.2796461E1,3.970387E0,1.4733688E1,1.04121796E2,5.837248E1,2.167129E2,4.4789326E1,3.377028E0,7.834536E1,2.9621494E0,2.2940924E0,3.5703648E1,8.452035E1,1.0396242E2,4.8338303E1,8.723746E0,1.9658422E0,1.4591558E0,4.2814617E0,4.5649387E1,1.7866068E0,9.523478E0,3.6982076E0,8.464569E1,1.2000437E1,1.1971758E1,9.102242E1,1.4725588E1,8.070872E0,2.3312001E0,1.6391867E0],"tree_param":{"num_deleted":"0","num_feature":"36","num_nodes":"59","size_leaf_vector":"1"}},{"base_weights":[2.2645079E-2,-1.9263278E-1,4.423278E-1,-3.2342148E-1,6.021714E-1,2.5759894E-1,8.6426276E-1,-4.3622595E-1,4.362599E-1,2.6940587E-1,8.5004926E-1,-2.8769612E-1,4.0118226E-1,1.0827273E0,6.5033627E-1,-8.24239E-1,-2.569839E-1,6.7039275E-1,-4.757301E-1,-4.79804E-2,9.108912E-1,-1.2156044E-1,9.599724E-1,2.3651677E-1,-8.8893205E-1,8.925825E-1,2.3386951E-1,1.1448349E0,-1.329007E-1,8.152307E-1,-8.280153E-2,-1.3441049E-2,-4.8496358E-2,-2.0999464E-3,-3.249688E-2,1.2713554E-2,5.3787358E-2,-4.880775E-2,1.8048704E-2,1.2388725E-2,-3.7955116E-2,-7.8481383E-4,6.1027747E-2,4.481146E-2,-6.295072E-2,4.986879E-2,-1.25619965E-2,-3.725645E-3,6.6856235E-2,5.0455276E-3,-5.4093488E-2,4.8657734E-2,-2.2130635E-2,4.529179E-3,4.6368144E-2,6.1932527E-3,5.829323E-2,4.3466374E-2,-5.5971265E-2,4.8076592E-2,-6.73604E-3,-2.6032299E-2,5.3657044E-2],"categories":[],"categories_nodes":[],"categories_segments":[],"categories_sizes":[],"default_left":[0,0,0,0,0,0,0,0,0,0,0,0,0,0,0,0,0,0,0,0,0,0,0,0,0,0,0,0,0,0,0,0,0,0,0,0,0,0,0,0,0,0,0,0,0,0,0,0,0,0,0,0,0,0,0,0,0,0,0,0,0,0,0],"id":16,"left_children":[1,3,5,7,9,11,13,15,17,19,21,23,25,27,29,31,33,35,37,39,41,43,45,47,49,51,53,55,57,59,61,-1,-1,-1,-1,-1,-1,-1,-1,-1,-1,-1,-1,-1,-1,-1,-1,-1,-1,-1,-1,-1,-1,-1,-1,-1,-1,-1,-1,-1,-1,-1,-1],"loss_changes":[9.8674484E1,7.5241714E1,2.8637482E1,5.3371277E1,8.214329E0,2.038976E1,4.545288E0,3.7403038E1,1.7558107E1,9.238717E0,6.332527E0,1.7404613E1,1.6678093E1,4.23423E0,7.230812E0,1.3531242E1,3.1348387E1,1.0632711E1,7.5029545E0,6.742356E0,4.322772E0,9.003869E0,2.624321E0,1.0346722E1,5.00218E0,6.0049057E0,1.5276053E1,9.6227264E-1,4.457485E0,6.8653755E0,6.5248923E0,0E0,0E0,0E0,0E0,0E0,0E0,0E0,0E0,0E0,0E0,0E0,0E0,0E0,0E0,0E0,0E0,0E0,0E0,0E0,0E0,0E0,0E0,0E0,0E0,0E0,0E0,0E0,0E0,0E0,0E0,0E0,0E0],"parents":[2147483647,0,0,1,1,2,2,3,3,4,4,5,5,6,6,7,7,8,8,9,9,10,10,11,11,12,12,13,13,14,14,15,15,16,16,17,17,18,18,19,19,20,20,21,21,22,22,23,23,24,24,25,25,26,26,27,27,28,28,29,29,30,30],"right_children":[2,4,6,8,10,12,14,16,18,20,22,24,26,28,30,32,34,36,38,40,42,44,46,48,50,52,54,56,58,60,62,-1,-1,-1,-1,-1,-1,-1,-1,-1,-1,-1,-1,-1,-1,-1,-1,-1,-1,-1,-1,-1,-1,-1,-1,-1,-1,-1,-1,-1,-1,-1,-1],"split_conditions":[5.9582525E-1,1.6719476E0,4.1647124E-1,1.3772354E0,-3.193205E-1,-5.8155715E-1,-2.7769235E-1,-4.6104866E-1,8.1605774E-1,3.6951787E0,-9.141606E-1,-2.963569E-1,-1.0717316E0,1.3771781E0,7.585155E-1,-1.0950856E0,3.0421385E-1,3.6804983E-1,8.5065514E-1,5.2607775E-1,-1.3816324E-1,-1.1813496E0,2.1966882E0,-5.2719444E-1,-6.130365E-1,1.816397E0,1.6719476E0,-1.3190691E0,-3.903188E-1,6.762385E-1,6.6176265E-2,-1.3441049E-2,-4.8496358E-2,-2.0999464E-3,-3.249688E-2,1.2713554E-2,5.3787358E-2,-4.880775E-2,1.8048704E-2,1.2388725E-2,-3.7955116E-2,-7.8481383E-4,6.1027747E-2,4.481146E-2,-6.295072E-2,4.986879E-2,-1.25619965E-2,-3.725645E-3,6.6856235E-2,5.0455276E-3,-5.4093488E-2,4.8657734E-2,-2.2130635E-2,4.529179E-3,4.6368144E-2,6.1932527E-3,5.829323E-2,4.3466374E-2,-5.5971265E-2,4.8076592E-2,-6.73604E-3,-2.6032299E-2,5.3657044E-2],"split_indices":[15,12,6,6,15,10,1,10,1,12,10,7,1,5,3,1,1,10,5,1,3,2,7,7,11,13,12,10,2,7,13,0,0,0,0,0,0,0,0,0,0,0,0,0,0,0,0,0,0,0,0,0,0,0,0,0,0,0,0,0,0,0,0],"split_type":[0,0,0,0,0,0,0,0,0,0,0,0,0,0,0,0,0,0,0,0,0,0,0,0,0,0,0,0,0,0,0,0,0,0,0,0,0,0,0,0,0,0,0,0,0,0,0,0,0,0,0,0,0,0,0,0,0,0,0,0,0,0,0],"sum_hessian":[1.0902122E3,7.2094275E2,3.6926935E2,6.1958093E2,1.0136182E2,2.579471E2,1.11322235E2,5.398455E2,7.973544E1,4.416245E1,5.7199368E1,5.3554874E1,2.0439224E2,5.306765E1,5.825459E1,1.6944406E2,3.7040146E2,6.3657684E1,1.6077763E1,3.016365E1,1.3998798E1,5.80278E0,5.1396587E1,2.8934086E1,2.4620789E1,5.0814487E1,1.5357776E2,5.0543568E1,2.52408E0,4.746661E1,1.0787979E1,3.580128E1,1.3364278E2,2.4013206E2,1.3026938E2,3.2214626E1,3.1443056E1,9.956317E0,6.121446E0,2.1763716E1,8.399936E0,3.7442942E0,1.0254504E1,3.174407E0,2.6283734E0,5.0028217E1,1.368371E0,2.3285849E1,5.648237E0,4.094003E0,2.0526785E1,4.8178326E1,2.6361642E0,1.2821687E2,2.5360876E1,1.159132E0,4.9384438E1,1.3110046E0,1.2130754E0,4.112136E1,6.3452506E0,8.222918E0,2.5650609E0],"tree_param":{"num_deleted":"0","num_feature":"36","num_nodes":"63","size_leaf_vector":"1"}},{"base_weights":[-2.239803E-3,-3.3507937E-1,3.683704E-1,-1.1178495E-1,-7.297375E-1,6.1708033E-1,8.130825E-2,-2.0683014E-1,5.5091757E-1,-8.3647335E-1,2.06523E-1,8.8864726E-1,3.4455132E-1,-1.889543E-2,9.7432095E-1,-6.535318E-1,-3.8213477E-2,1.0902356E0,1.7973505E-1,-8.997144E-1,5.56284E-1,-1.0982767E0,6.1662424E-1,7.1103054E-1,1.0946238E0,4.0884432E-1,-7.953636E-1,3.3784688E-1,-2.9072186E-1,-1.0423201E-1,1.0868804E0,-2.3706557E-2,-7.143739E-2,1.3712615E-2,-1.2232696E-2,5.881573E-2,-6.6941627E-3,3.2457273E-2,-2.8372763E-2,-5.1475395E-2,-3.2098375E-2,-5.1636893E-2,6.2852286E-2,7.4161994E-3,-7.3882036E-2,4.204467E-2,-4.821541E-2,2.900959E-2,5.6582298E-2,1.8353088E-2,5.9043795E-2,2.920941E-2,8.7635807E-4,1.7839357E-2,-8.030387E-2,2.3946721E-2,-1.7963639E-2,-2.1658143E-2,4.462624E-2,-7.9243975E-3,-9.6945725E-5,-1.1311729E-2,5.930341E-2],"categories":[],"categories_nodes":[],"categories_segments":[],"categories_sizes":[],"default_left":[0,0,0,0,0,0,0,0,0,0,0,0,0,0,0,0,0,0,0,0,0,0,0,0,0,0,0,0,0,0,0,0,0,0,0,0,0,0,0,0,0,0,0,0,0,0,0,0,0,0,0,0,0,0,0,0,0,0,0,0,0,0,0],"id":17,"left_children":[1,3,5,7,9,11,13,15,17,19,21,23,25,27,29,31,33,35,37,39,41,43,45,47,49,51,53,55,57,59,61,-1,-1,-1,-1,-1,-1,-1,-1,-1,-1,-1,-1,-1,-1,-1,-1,-1,-1,-1,-1,-1,-1,-1,-1,-1,-1,-1,-1,-1,-1,-1,-1],"loss_changes":[1.3245026E2,4.9770237E1,3.622204E1,2.294437E1,2.0582E1,1.9828651E1,2.1225204E1,2.3906647E1,8.959981E0,1.6665573E1,1.2289992E1,4.183876E0,1.0396551E1,2.085636E1,3.018261E0,1.1422756E1,1.5014447E1,2.1014004E0,1.0290422E1,5.22493E0,1.0862783E1,2.8435636E0,6.8924336E0,3.5085945E0,3.3914032E0,8.960791E0,7.743325E0,9.322497E0,2.0953632E1,1.730699E-2,3.1018028E0,0E0,0E0,0E0,0E0,0E0,0E0,0E0,0E0,0E0,0E0,0E0,0E0,0E0,0E0,0E0,0E0,0E0,0E0,0E0,0E0,0E0,0E0,0E0,0E0,0E0,0E0,0E0,0E0,0E0,0E0,0E0,0E0],"parents":[2147483647,0,0,1,1,2,2,3,3,4,4,5,5,6,6,7,7,8,8,9,9,10,10,11,11,12,12,13,13,14,14,15,15,16,16,17,17,18,18,19,19,20,20,21,21,22,22,23,23,24,24,25,25,26,26,27,27,28,28,29,29,30,30],"right_children":[2,4,6,8,10,12,14,16,18,20,22,24,26,28,30,32,34,36,38,40,42,44,46,48,50,52,54,56,58,60,62,-1,-1,-1,-1,-1,-1,-1,-1,-1,-1,-1,-1,-1,-1,-1,-1,-1,-1,-1,-1,-1,-1,-1,-1,-1,-1,-1,-1,-1,-1,-1,-1],"split_conditions":[2.8286567E-1,-5.1011786E-2,-4.032241E-1,1.6719476E0,1.6719476E0,-1.7259893E-1,2.6835632E0,-8.5303336E-1,-1.1379094E0,1.6958766E0,-4.3705612E-1,1.0295405E0,2.2213109E0,-4.3338633E-1,-7.397183E-1,-2.2997494E-1,-5.7740325E-1,1.5763942E0,7.651142E-2,6.9959724E-1,-5.210388E-1,-5.9182894E-1,1.098253E0,1.6719476E0,-1.5641137E0,-8.755218E-1,-5.865026E-1,1.1538736E0,1.9311107E0,-2.0957623E-1,-1.4831812E0,-2.3706557E-2,-7.143739E-2,1.3712615E-2,-1.2232696E-2,5.881573E-2,-6.6941627E-3,3.2457273E-2,-2.8372763E-2,-5.1475395E-2,-3.2098375E-2,-5.1636893E-2,6.2852286E-2,7.4161994E-3,-7.3882036E-2,4.204467E-2,-4.821541E-2,2.900959E-2,5.6582298E-2,1.8353088E-2,5.9043795E-2,2.920941E-2,8.7635807E-4,1.7839357E-2,-8.030387E-2,2.3946721E-2,-1.7963639E-2,-2.1658143E-2,4.462624E-2,-7.9243975E-3,-9.6945725E-5,-1.1311729E-2,5.930341E-2],"split_indices":[14,11,9,12,12,1,12,14,9,9,3,14,7,1,11,11,1,0,1,8,7,7,1,12,1,9,3,0,14,1,3,0,0,0,0,0,0,0,0,0,0,0,0,0,0,0,0,0,0,0,0,0,0,0,0,0,0,0,0,0,0,0,0],"split_type":[0,0,0,0,0,0,0,0,0,0,0,0,0,0,0,0,0,0,0,0,0,0,0,0,0,0,0,0,0,0,0,0,0,0,0,0,0,0,0,0,0,0,0,0,0,0,0,0,0,0,0,0,0,0,0,0,0,0,0,0,0,0,0],"sum_hessian":[1.0717427E3,5.646946E2,5.0704803E2,3.6146426E2,2.0323035E2,2.7105606E2,2.3599197E2,3.16727E2,4.4737274E1,1.8252829E2,2.0702055E1,1.3463531E2,1.3642076E2,2.1306328E2,2.2928688E1,8.6005135E1,2.3072185E2,1.744825E1,2.7289024E1,1.7493883E2,7.589462E0,4.5493956E0,1.615266E1,7.468515E1,5.9950172E1,1.2974431E2,6.676448E0,9.203482E1,1.21028465E2,2.17374E0,2.075495E1,7.115097E1,1.485416E1,9.1659164E1,1.3906268E2,1.63384E1,1.1098508E0,1.6840479E1,1.04485445E1,1.1435758E2,6.058124E1,2.177685E0,5.411777E0,1.2035415E0,3.3458538E0,1.4555882E1,1.5967772E0,5.87801E1,1.59050455E1,6.9108486E0,5.3039326E1,8.9256714E1,4.0487595E1,2.9888027E0,3.6876452E0,7.6803764E1,1.5231056E1,1.0859014E2,1.2438324E1,1.0614166E0,1.1123233E0,1.3676881E0,1.938726E1],"tree_param":{"num_deleted":"0","num_feature":"36","num_nodes":"63","size_leaf_vector":"1"}},{"base_weights":[1.3368723E-2,-2.404933E-1,6.088091E-1,1.1754968E-2,-6.6463745E-1,7.6828545E-1,1.66259E-1,-1.0509343E-1,6.3160175E-1,-7.4475E-1,5.03587E-1,8.5204834E-1,2.750565E-1,-4.6058497E-1,6.010714E-1,-2.7699032E-1,4.4332877E-1,9.349805E-1,2.1332173E-1,-1.0123191E0,-5.5007476E-1,-5.436784E-1,1.0621072E0,5.06714E-1,9.441349E-1,-3.7672374E-1,5.685663E-1,-8.213836E-1,9.1027653E-1,9.109066E-3,9.499004E-1,1.8770855E-3,-2.3682998E-2,5.5769213E-2,1.3059201E-2,4.997393E-2,-2.9620174E-3,4.293276E-2,-2.4034105E-2,-1.769578E-2,-5.78459E-2,-3.1548414E-2,3.818239E-2,-6.523332E-2,9.4111925E-3,6.820518E-2,-1.4337763E-2,3.9910693E-2,-2.5047814E-2,4.8939016E-2,-1.1901954E-2,-6.436497E-2,3.055769E-2,4.0635962E-2,-2.3466228E-2,-5.680862E-2,1.4010528E-2,1.8791751E-3,6.566023E-2,-3.0843375E-2,4.158258E-2,5.2661758E-2,-1.0864748E-2],"categories":[],"categories_nodes":[],"categories_segments":[],"categories_sizes":[],"default_left":[0,0,0,0,0,0,0,0,0,0,0,0,0,0,0,0,0,0,0,0,0,0,0,0,0,0,0,0,0,0,0,0,0,0,0,0,0,0,0,0,0,0,0,0,0,0,0,0,0,0,0,0,0,0,0,0,0,0,0,0,0,0,0],"id":18,"left_children":[1,3,5,7,9,11,13,15,17,19,21,23,25,27,29,31,33,35,37,39,41,43,45,47,49,51,53,55,57,59,61,-1,-1,-1,-1,-1,-1,-1,-1,-1,-1,-1,-1,-1,-1,-1,-1,-1,-1,-1,-1,-1,-1,-1,-1,-1,-1,-1,-1,-1,-1,-1,-1],"loss_changes":[1.6381335E2,8.130068E1,2.2733452E1,3.4646572E1,2.6896286E1,9.591797E0,2.4012094E1,3.807402E1,9.428303E0,1.3277817E1,1.1563705E1,5.971863E0,7.101936E0,1.8668129E1,1.0698242E1,1.901571E1,1.151576E1,2.860176E0,1.5277716E1,1.0126465E1,1.7052734E1,4.2525797E0,5.5189905E0,1.357672E1,6.7441406E0,1.138389E1,6.7731724E0,1.0446964E1,2.7719288E0,1.0931924E1,4.1627216E0,0E0,0E0,0E0,0E0,0E0,0E0,0E0,0E0,0E0,0E0,0E0,0E0,0E0,0E0,0E0,0E0,0E0,0E0,0E0,0E0,0E0,0E0,0E0,0E0,0E0,0E0,0E0,0E0,0E0,0E0,0E0,0E0],"parents":[2147483647,0,0,1,1,2,2,3,3,4,4,5,5,6,6,7,7,8,8,9,9,10,10,11,11,12,12,13,13,14,14,15,15,16,16,17,17,18,18,19,19,20,20,21,21,22,22,23,23,24,24,25,25,26,26,27,27,28,28,29,29,30,30],"right_children":[2,4,6,8,10,12,14,16,18,20,22,24,26,28,30,32,34,36,38,40,42,44,46,48,50,52,54,56,58,60,62,-1,-1,-1,-1,-1,-1,-1,-1,-1,-1,-1,-1,-1,-1,-1,-1,-1,-1,-1,-1,-1,-1,-1,-1,-1,-1,-1,-1,-1,-1,-1,-1],"split_conditions":[4.9506533E-1,2.789836E-1,6.662023E-1,1.6719476E0,2.6835632E0,8.562363E-1,3.5770062E-1,7.9192793E-1,7.651142E-2,-2.9597494E-1,-5.442929E-1,-5.442929E-1,-9.5203176E-2,2.5781906E0,1.6839831E0,-5.676724E-1,-1.1242783E0,-3.58815E-2,-8.755218E-1,-1.1982329E0,1.6958766E0,2.5498015E-1,6.389559E-1,7.31353E-1,2.082592E0,4.120534E-2,-7.165267E-1,1.6719476E0,1.7825681E-1,3.9697188E-1,1.577012E0,1.8770855E-3,-2.3682998E-2,5.5769213E-2,1.3059201E-2,4.997393E-2,-2.9620174E-3,4.293276E-2,-2.4034105E-2,-1.769578E-2,-5.78459E-2,-3.1548414E-2,3.818239E-2,-6.523332E-2,9.4111925E-3,6.820518E-2,-1.4337763E-2,3.9910693E-2,-2.5047814E-2,4.8939016E-2,-1.1901954E-2,-6.436497E-2,3.055769E-2,4.0635962E-2,-2.3466228E-2,-5.680862E-2,1.4010528E-2,1.8791751E-3,6.566023E-2,-3.0843375E-2,4.158258E-2,5.2661758E-2,-1.0864748E-2],"split_indices":[16,9,1,12,12,9,15,15,1,15,6,6,15,6,16,1,1,9,9,1,9,15,1,0,5,5,10,12,2,10,1,0,0,0,0,0,0,0,0,0,0,0,0,0,0,0,0,0,0,0,0,0,0,0,0,0,0,0,0,0,0,0,0],"split_type":[0,0,0,0,0,0,0,0,0,0,0,0,0,0,0,0,0,0,0,0,0,0,0,0,0,0,0,0,0,0,0,0,0,0,0,0,0,0,0,0,0,0,0,0,0,0,0,0,0,0,0,0,0,0,0,0,0,0,0,0,0,0,0],"sum_hessian":[1.081742E3,7.588202E2,3.2292178E2,4.7644165E2,2.823785E2,2.3683899E2,8.608281E1,4.0157123E2,7.487044E1,2.6459598E2,1.7782534E1,2.018348E2,3.5004196E1,3.5231834E1,5.0850975E1,3.0611713E2,9.545411E1,4.26796E1,3.2190834E1,1.0966633E2,1.5492964E2,6.194317E0,1.1588216E1,4.3859528E1,1.5797527E2,1.0780671E1,2.4223524E1,2.8208447E1,7.023387E0,1.9235115E1,3.1615858E1,1.1808074E2,1.8803638E2,1.9261555E1,7.619255E1,4.007456E1,2.6050441E0,1.6557377E1,1.5633459E1,2.0368734E1,8.92976E1,1.4643265E2,8.496997E0,2.653156E0,3.541161E0,9.459119E0,2.1290975E0,3.4179817E1,9.679709E0,1.5364452E2,4.3307414E0,5.4521027E0,5.328569E0,1.9786022E1,4.4375014E0,2.1914753E1,6.293695E0,2.563795E0,4.4595914E0,1.1064663E1,8.170453E0,2.913417E1,2.4816875E0],"tree_param":{"num_deleted":"0","num_feature":"36","num_nodes":"63","size_leaf_vector":"1"}},{"base_weights":[1.5248722E-2,-1.9153301E-1,7.386384E-1,-3.1391656E-1,5.8918977E-1,-3.7408254E-1,7.66674E-1,-5.46252E-1,-3.905722E-2,-2.9151154E-1,6.9000506E-1,-1.105599E0,3.755149E-2,6.9816583E-1,1.2345636E0,-3.6157313E-1,-8.261624E-1,-1.12790726E-1,1.0912223E0,-9.199232E-1,9.529503E-1,4.5041254E-1,9.3615127E-1,-7.601273E-2,1.5079615E-3,4.8439446E-1,8.9991057E-1,6.456937E-2,-3.951389E-3,-2.5373964E-2,5.9232158E-3,-1.6717525E-2,-5.0187703E-2,-1.5007622E-2,1.5125026E-2,6.1597295E-2,-1.54302E-2,-7.1576215E-2,4.9731042E-2,5.4504204E-4,6.831561E-2,4.1096523E-2,3.5302478E-3,5.579787E-2,1.4666133E-2,2.6162673E-2,-4.812878E-2,4.9527314E-2,-1.3980945E-2],"categories":[],"categories_nodes":[],"categories_segments":[],"categories_sizes":[],"default_left":[0,0,0,0,0,0,0,0,0,0,0,0,0,0,0,0,0,0,0,0,0,0,0,0,0,0,0,0,0,0,0,0,0,0,0,0,0,0,0,0,0,0,0,0,0,0,0,0,0],"id":19,"left_children":[1,3,5,7,9,11,13,15,17,19,21,23,-1,25,27,29,31,33,35,37,39,41,43,-1,-1,45,47,-1,-1,-1,-1,-1,-1,-1,-1,-1,-1,-1,-1,-1,-1,-1,-1,-1,-1,-1,-1,-1,-1],"loss_changes":[1.5920676E2,7.9277756E1,7.6677856E0,4.5718735E1,1.01919365E1,6.169289E0,6.54628E0,1.9762466E1,2.7556849E1,1.0464975E1,5.5503235E0,2.0876684E0,0E0,8.357681E0,2.2082024E0,1.6561079E1,1.3070221E1,2.4206217E1,4.3697243E0,9.901915E0,1.7783566E0,7.4546957E0,5.3387527E0,0E0,0E0,6.191921E0,1.1366974E1,0E0,0E0,0E0,0E0,0E0,0E0,0E0,0E0,0E0,0E0,0E0,0E0,0E0,0E0,0E0,0E0,0E0,0E0,0E0,0E0,0E0,0E0],"parents":[2147483647,0,0,1,1,2,2,3,3,4,4,5,5,6,6,7,7,8,8,9,9,10,10,11,11,13,13,14,14,15,15,16,16,17,17,18,18,19,19,20,20,21,21,22,22,25,25,26,26],"right_children":[2,4,6,8,10,12,14,16,18,20,22,24,-1,26,28,30,32,34,36,38,40,42,44,-1,-1,46,48,-1,-1,-1,-1,-1,-1,-1,-1,-1,-1,-1,-1,-1,-1,-1,-1,-1,-1,-1,-1,-1,-1],"split_conditions":[1.208416E0,1.6719476E0,-1.4202963E0,2.0897861E-1,-9.4790304E-1,1E0,2.6835632E0,1E0,1.8576175E0,1E0,-2.778899E-1,1.8811221E-1,3.755149E-2,6.238399E-1,2.2213109E0,7.1722215E-1,-8.983693E-1,5.678106E-1,1.6917321E-1,1.8411716E0,-1.3383505E0,-5.7028407E-1,-1.7833225E-2,-7.601273E-2,1.5079615E-3,1.9635824E0,1.455674E0,6.456937E-2,-3.951389E-3,-2.5373964E-2,5.9232158E-3,-1.6717525E-2,-5.0187703E-2,-1.5007622E-2,1.5125026E-2,6.1597295E-2,-1.54302E-2,-7.1576215E-2,4.9731042E-2,5.4504204E-4,6.831561E-2,4.1096523E-2,3.5302478E-3,5.579787E-2,1.4666133E-2,2.6162673E-2,-4.812878E-2,4.9527314E-2,-1.3980945E-2],"split_indices":[16,12,10,10,10,34,12,33,6,20,7,0,0,15,7,15,0,15,11,11,10,7,11,0,0,10,0,0,0,0,0,0,0,0,0,0,0,0,0,0,0,0,0,0,0,0,0,0,0],"split_type":[0,0,0,0,0,0,0,0,0,0,0,0,0,0,0,0,0,0,0,0,0,0,0,0,0,0,0,0,0,0,0,0,0,0,0,0,0,0,0,0,0,0,0,0,0,0,0,0,0],"sum_hessian":[1.062386E3,8.2678406E2,2.3560191E2,7.1526013E2,1.1152392E2,5.4868803E0,2.3011504E2,3.8707916E2,3.2818097E2,1.1260757E1,1.0026316E2,3.3355455E0,2.151335E0,2.0289886E2,2.7216177E1,2.3459206E2,1.524871E2,3.089283E2,1.9252653E1,7.655681E0,3.6050768E0,5.2241993E1,4.802117E1,2.1954637E0,1.1400818E0,1.00164375E2,1.0273448E2,2.610387E1,1.1123066E0,1.7986531E2,5.4726753E1,4.121934E1,1.1126775E2,2.1307515E2,9.585317E1,1.7602968E1,1.6496848E0,6.2404175E0,1.4152634E0,1.4124597E0,2.1926172E0,2.582074E1,2.6421251E1,3.694988E1,1.1071293E1,9.816646E1,1.997921E0,9.55524E1,7.182081E0],"tree_param":{"num_deleted":"0","num_feature":"36","num_nodes":"49","size_leaf_vector":"1"}},{"base_weights":[5.899052E-3,-2.3094034E-1,5.715165E-1,6.632984E-2,-4.8266897E-1,8.9091694E-1,4.0762565E-1,-5.057554E-2,5.5424947E-1,-5.755556E-1,1.7632483E-1,-4.167089E-1,9.326839E-1,3.157893E-1,1.1665131E0,-6.2264335E-1,5.8213156E-2,7.314687E-1,7.1811005E-2,-6.132866E-1,7.329714E-1,1.7431684E0,-1.1980269E-1,-5.878326E-2,1.7389571E-2,1.3123417E-1,9.6963185E-1,1.06345855E-1,6.0611117E-1,1.2775966E0,-1.4958143E-2,8.669137E-3,-4.772475E-2,-1.9013017E-2,9.4897505E-3,4.527168E-2,2.1022612E-4,3.13819E-2,-3.1073604E-2,6.9536045E-2,-3.1599924E-2,-2.1947747E-2,5.0020363E-2,1.01461224E-1,1.1406762E-2,-4.4738628E-2,2.0507589E-2,-6.1135568E-2,3.773431E-2,5.0558805E-2,2.1506486E-2,-3.7136223E-2,1.2259287E-2,6.1112694E-3,4.1611705E-2,6.617425E-2,1.6027471E-2],"categories":[],"categories_nodes":[],"categories_segments":[],"categories_sizes":[],"default_left":[0,0,0,0,0,0,0,0,0,0,0,0,0,0,0,0,0,0,0,0,0,0,0,0,0,0,0,0,0,0,0,0,0,0,0,0,0,0,0,0,0,0,0,0,0,0,0,0,0,0,0,0,0,0,0,0,0],"id":20,"left_children":[1,3,5,7,9,11,13,15,17,19,21,23,25,27,29,31,33,35,37,39,41,43,45,-1,-1,47,49,51,53,55,-1,-1,-1,-1,-1,-1,-1,-1,-1,-1,-1,-1,-1,-1,-1,-1,-1,-1,-1,-1,-1,-1,-1,-1,-1,-1,-1],"loss_changes":[1.4152956E2,5.5759033E1,1.5959419E1,1.9555351E1,2.4791794E1,6.1177063E0,1.4122166E1,1.7280659E1,5.612026E0,1.791555E1,2.3684706E1,2.6938157E0,2.891983E0,1.1296814E1,3.9760914E0,1.1883518E1,1.355717E1,6.1128426E0,7.67627E0,1.3793213E1,3.6893487E0,3.050417E0,1.822801E1,0E0,0E0,5.6919355E0,1.7460938E0,1.3120415E1,8.442783E0,4.8521042E-1,0E0,0E0,0E0,0E0,0E0,0E0,0E0,0E0,0E0,0E0,0E0,0E0,0E0,0E0,0E0,0E0,0E0,0E0,0E0,0E0,0E0,0E0,0E0,0E0,0E0,0E0,0E0],"parents":[2147483647,0,0,1,1,2,2,3,3,4,4,5,5,6,6,7,7,8,8,9,9,10,10,11,11,12,12,13,13,14,14,15,15,16,16,17,17,18,18,19,19,20,20,21,21,22,22,25,25,26,26,27,27,28,28,29,29],"right_children":[2,4,6,8,10,12,14,16,18,20,22,24,26,28,30,32,34,36,38,40,42,44,46,-1,-1,48,50,52,54,56,-1,-1,-1,-1,-1,-1,-1,-1,-1,-1,-1,-1,-1,-1,-1,-1,-1,-1,-1,-1,-1,-1,-1,-1,-1,-1,-1],"split_conditions":[4.9506533E-1,-2.982691E-1,-8.755218E-1,2.0324174E-1,1.0674055E0,-1.0663782E0,2.6835632E0,-9.589887E-1,1E0,3.6951787E0,1.1140966E0,-1.776506E-1,-8.645476E-1,4.179866E-2,2.1782212E0,-7.839564E-1,1.7523624E-1,8.880827E-1,-1.1903869E0,-2.37986E0,-7.888318E-1,9.829819E-2,-2.6773044E-1,-5.878326E-2,1.7389571E-2,1.3667351E-1,1E0,-1.0925132E0,-5.456614E-1,3.7353137E0,-1.4958143E-2,8.669137E-3,-4.772475E-2,-1.9013017E-2,9.4897505E-3,4.527168E-2,2.1022612E-4,3.13819E-2,-3.1073604E-2,6.9536045E-2,-3.1599924E-2,-2.1947747E-2,5.0020363E-2,1.01461224E-1,1.1406762E-2,-4.4738628E-2,2.0507589E-2,-6.1135568E-2,3.773431E-2,5.0558805E-2,2.1506486E-2,-3.7136223E-2,1.2259287E-2,6.1112694E-3,4.1611705E-2,6.617425E-2,1.6027471E-2],"split_indices":[16,9,9,13,15,15,12,15,27,12,15,5,6,2,7,11,10,5,9,3,10,5,5,0,0,10,21,10,7,13,0,0,0,0,0,0,0,0,0,0,0,0,0,0,0,0,0,0,0,0,0,0,0,0,0,0,0],"split_type":[0,0,0,0,0,0,0,0,0,0,0,0,0,0,0,0,0,0,0,0,0,0,0,0,0,0,0,0,0,0,0,0,0,0,0,0,0,0,0,0,0,0,0,0,0,0,0,0,0,0,0,0,0,0,0,0,0],"sum_hessian":[1.054517E3,7.437009E2,3.1081607E2,3.4134174E2,4.023592E2,1.0389778E2,2.0691827E2,2.760876E2,6.525415E1,3.5276306E2,4.959613E1,2.9380243E0,1.00959755E2,1.8584453E2,2.107375E1,4.3359142E1,2.3272845E2,4.7345894E1,1.7908257E1,3.4339273E2,9.37032E0,7.1067867E0,4.248934E1,1.2044685E0,1.7335557E0,4.649874E0,9.630988E1,1.0875383E2,7.70907E1,1.9708374E1,1.3653749E0,1.2897915E1,3.0461227E1,5.328283E1,1.7944562E2,3.8008984E1,9.33691E0,9.9920225E0,7.9162335E0,2.4983757E0,3.4089435E2,1.6218578E0,7.7484627E0,5.69257E0,1.4142169E0,1.6976156E1,2.5513186E1,1.1630003E0,3.4868739E0,8.861205E1,7.6978273E0,1.4672876E1,9.4080956E1,2.50424E1,5.2048294E1,1.8441273E1,1.2671018E0],"tree_param":{"num_deleted":"0","num_feature":"36","num_nodes":"57","size_leaf_vector":"1"}},{"base_weights":[4.929895E-2,-1.3313328E-1,6.979165E-1,-3.6726287E-1,1.1997446E-1,6.084619E-1,1.0775594E0,-4.992204E-1,2.4487E-1,2.633237E-1,-3.3826542E-1,7.983435E-1,4.1477773E-1,1.1297001E0,-1.6068285E-2,-5.806336E-1,1.7766319E-1,-7.085197E-2,9.9132E-1,1.3789904E-2,5.3931385E-1,-6.218994E-1,2.1864569E-1,9.619356E-1,3.2129878E-1,5.782392E-1,-1.1123759E-1,1.1850253E0,-4.8765304E-4,-4.2161968E-2,-1.6695846E-2,1.8755807E-2,-5.0486382E-2,5.8826726E-2,-1.9971447E-2,6.067822E-2,-5.6810208E-2,3.2527026E-2,-7.071191E-3,4.3208234E-2,1.654355E-2,-3.518388E-2,5.3150434E-2,-1.7701553E-2,3.999393E-2,5.049559E-2,-2.6275098E-2,4.4828545E-2,-2.1389326E-2,4.781301E-2,1.6411718E-2,-3.58234E-2,2.8039018E-2,-4.298517E-3,6.2476434E-2],"categories":[],"categories_nodes":[],"categories_segments":[],"categories_sizes":[],"default_left":[0,0,0,0,0,0,0,0,0,0,0,0,0,0,0,0,0,0,0,0,0,0,0,0,0,0,0,0,0,0,0,0,0,0,0,0,0,0,0,0,0,0,0,0,0,0,0,0,0,0,0,0,0,0,0],"id":21,"left_children":[1,3,5,7,9,11,13,15,17,19,21,23,25,27,-1,29,31,33,35,37,39,41,43,45,47,49,51,53,-1,-1,-1,-1,-1,-1,-1,-1,-1,-1,-1,-1,-1,-1,-1,-1,-1,-1,-1,-1,-1,-1,-1,-1,-1,-1,-1],"loss_changes":[1.2507814E2,4.894689E1,7.224243E0,3.4769314E1,2.6186703E1,6.659424E0,3.4958458E0,1.9566612E1,1.815506E1,2.0872776E1,1.5158946E1,7.097046E0,8.334099E0,2.6358109E0,0E0,2.0159874E1,9.448749E0,2.2955545E1,1.2195492E1,1.5930082E1,9.460392E0,9.466457E0,1.1211851E1,5.537842E0,1.1473566E1,6.635994E0,1.0017105E1,3.3628578E0,0E0,0E0,0E0,0E0,0E0,0E0,0E0,0E0,0E0,0E0,0E0,0E0,0E0,0E0,0E0,0E0,0E0,0E0,0E0,0E0,0E0,0E0,0E0,0E0,0E0,0E0,0E0],"parents":[2147483647,0,0,1,1,2,2,3,3,4,4,5,5,6,6,7,7,8,8,9,9,10,10,11,11,12,12,13,13,15,15,16,16,17,17,18,18,19,19,20,20,21,21,22,22,23,23,24,24,25,25,26,26,27,27],"right_children":[2,4,6,8,10,12,14,16,18,20,22,24,26,28,-1,30,32,34,36,38,40,42,44,46,48,50,52,54,-1,-1,-1,-1,-1,-1,-1,-1,-1,-1,-1,-1,-1,-1,-1,-1,-1,-1,-1,-1,-1,-1,-1,-1,-1,-1,-1],"split_conditions":[1.208416E0,1.7523624E-1,1.6719476E0,9.880306E-1,-1.163635E-1,-1.7259893E-1,1.5341961E0,1.6719476E0,4.1647124E-1,-2.240382E-1,4.9777395E-1,1.3599466E-1,2.122419E-1,1.3048605E0,-1.6068285E-2,1E0,1.152746E0,-1.015752E0,1.3017898E0,-1.2663491E0,-6.065959E-1,3.0921602E0,1.6072966E-1,1.816397E0,1E0,-2.876097E-1,1.762802E-1,-8.235845E-1,-4.8765304E-4,-4.2161968E-2,-1.6695846E-2,1.8755807E-2,-5.0486382E-2,5.8826726E-2,-1.9971447E-2,6.067822E-2,-5.6810208E-2,3.2527026E-2,-7.071191E-3,4.3208234E-2,1.654355E-2,-3.518388E-2,5.3150434E-2,-1.7701553E-2,3.999393E-2,5.049559E-2,-2.6275098E-2,4.4828545E-2,-2.1389326E-2,4.781301E-2,1.6411718E-2,-3.58234E-2,2.8039018E-2,-4.298517E-3,6.2476434E-2],"split_indices":[16,10,12,15,11,1,1,12,6,6,15,11,4,5,0,17,1,2,8,1,1,13,3,13,29,3,6,15,0,0,0,0,0,0,0,0,0,0,0,0,0,0,0,0,0,0,0,0,0,0,0,0,0,0,0],"split_type":[0,0,0,0,0,0,0,0,0,0,0,0,0,0,0,0,0,0,0,0,0,0,0,0,0,0,0,0,0,0,0,0,0,0,0,0,0,0,0,0,0,0,0,0,0,0,0,0,0,0,0,0,0,0,0],"sum_hessian":[1.0552542E3,8.2422485E2,2.3102933E2,4.279301E2,3.9629474E2,1.8907957E2,4.194976E1,3.521924E2,7.573769E1,3.0218793E2,9.4106804E1,9.390064E1,9.517893E1,4.062793E1,1.3218342E0,3.1450684E2,3.7685585E1,5.3861332E1,2.187636E1,1.5925188E2,1.4293605E2,6.2274036E1,3.1832771E1,6.916542E1,2.4735222E1,7.253812E1,2.264081E1,3.8708473E1,1.9194545E0,1.5117647E2,1.6333035E2,3.289887E1,4.786717E0,1.0691641E1,4.3169693E1,2.019622E1,1.6801387E0,3.0585659E1,1.2866621E2,5.463833E1,8.8297714E1,5.994684E1,2.3271952E0,1.6231302E1,1.5601469E1,6.7315254E1,1.8501667E0,1.3879414E1,1.0855807E1,2.7751448E1,4.478667E1,1.1877549E1,1.076326E1,1.8535078E0,3.6854965E1],"tree_param":{"num_deleted":"0","num_feature":"36","num_nodes":"55","size_leaf_vector":"1"}},{"base_weights":[-4.639813E-3,-2.0844686E-1,5.7011545E-1,7.610231E-2,-4.8338455E-1,8.2767105E-1,3.3658266E-1,-3.5769988E-2,5.91955E-1,-3.2702613E-1,-8.675249E-1,1.1277208E0,6.018369E-1,2.1904764E-1,1.0780885E0,1.6600274E-1,-3.2613724E-1,6.737818E-1,-3.6599445E-1,-4.1540098E-1,6.078939E-1,-9.060755E-1,3.1241005E-2,-2.1268404E-3,1.1607344E0,8.8102454E-1,-2.4367645E-2,4.9698368E-1,-2.1600635E-1,1.1624435E0,-9.308668E-3,2.9807577E-2,-5.9615667E-3,-4.6646513E-2,-6.6719535E-3,5.8527388E-2,2.5879977E-2,2.1960218E-2,-7.4999094E-2,-4.202297E-2,-1.2916291E-2,-2.701844E-2,4.1661248E-2,-5.7394464E-2,-3.1800188E-2,6.1217327E-2,2.429795E-2,4.665969E-2,1.2709836E-3,3.1304207E-2,-3.0369759E-2,2.8527608E-2,-3.1264104E-2,8.136734E-3,-4.1531198E-2,6.2409353E-2,-6.8076397E-3],"categories":[],"categories_nodes":[],"categories_segments":[],"categories_sizes":[],"default_left":[0,0,0,0,0,0,0,0,0,0,0,0,0,0,0,0,0,0,0,0,0,0,0,0,0,0,0,0,0,0,0,0,0,0,0,0,0,0,0,0,0,0,0,0,0,0,0,0,0,0,0,0,0,0,0,0,0],"id":22,"left_children":[1,3,5,7,9,11,13,15,17,19,21,23,25,27,29,31,33,35,37,39,41,43,-1,-1,45,47,49,51,53,55,-1,-1,-1,-1,-1,-1,-1,-1,-1,-1,-1,-1,-1,-1,-1,-1,-1,-1,-1,-1,-1,-1,-1,-1,-1,-1,-1],"loss_changes":[1.2059603E2,5.9493713E1,1.5931267E1,2.1623823E1,2.2940582E1,7.9590836E0,1.2229105E1,1.813231E1,5.480446E0,2.3090551E1,6.966461E0,2.120079E0,1.3111929E1,1.5187326E1,2.2762127E0,2.2489317E1,1.4707272E1,4.194189E0,6.048368E0,1.668362E1,6.7318277E0,6.3790817E0,0E0,0E0,1.6440277E0,2.2890701E0,9.505314E0,6.664665E0,1.1614168E1,2.2013645E0,0E0,0E0,0E0,0E0,0E0,0E0,0E0,0E0,0E0,0E0,0E0,0E0,0E0,0E0,0E0,0E0,0E0,0E0,0E0,0E0,0E0,0E0,0E0,0E0,0E0,0E0,0E0],"parents":[2147483647,0,0,1,1,2,2,3,3,4,4,5,5,6,6,7,7,8,8,9,9,10,10,11,11,12,12,13,13,14,14,15,15,16,16,17,17,18,18,19,19,20,20,21,21,24,24,25,25,26,26,27,27,28,28,29,29],"right_children":[2,4,6,8,10,12,14,16,18,20,22,24,26,28,30,32,34,36,38,40,42,44,-1,-1,46,48,50,52,54,56,-1,-1,-1,-1,-1,-1,-1,-1,-1,-1,-1,-1,-1,-1,-1,-1,-1,-1,-1,-1,-1,-1,-1,-1,-1,-1,-1],"split_conditions":[7.328489E-1,-2.4579157E-1,-4.032241E-1,1.6719476E0,6.5257907E-1,-4.0285018E-1,1.6719476E0,1.6019693E-1,1.3882331E0,2.6835632E0,2.5799341E0,-7.303314E-1,2.3999009E-1,3.0421385E-1,1.6442457E0,1E0,-4.4395086E-1,-1.4002969E0,-1.2428644E0,-7.894866E-1,-5.610506E-1,1E0,3.1241005E-2,-2.1268404E-3,1E0,1E0,1E0,1.3771781E0,1E0,1.8314686E0,-9.308668E-3,2.9807577E-2,-5.9615667E-3,-4.6646513E-2,-6.6719535E-3,5.8527388E-2,2.5879977E-2,2.1960218E-2,-7.4999094E-2,-4.202297E-2,-1.2916291E-2,-2.701844E-2,4.1661248E-2,-5.7394464E-2,-3.1800188E-2,6.1217327E-2,2.429795E-2,4.665969E-2,1.2709836E-3,3.1304207E-2,-3.0369759E-2,2.8527608E-2,-3.1264104E-2,8.136734E-3,-4.1531198E-2,6.2409353E-2,-6.8076397E-3],"split_indices":[16,9,9,12,1,5,12,1,1,12,5,7,1,1,5,32,14,9,9,14,7,17,0,0,30,21,32,5,33,4,0,0,0,0,0,0,0,0,0,0,0,0,0,0,0,0,0,0,0,0,0,0,0,0,0,0,0],"split_type":[0,0,0,0,0,0,0,0,0,0,0,0,0,0,0,0,0,0,0,0,0,0,0,0,0,0,0,0,0,0,0,0,0,0,0,0,0,0,0,0,0,0,0,0,0,0,0,0,0,0,0,0,0,0,0,0,0],"sum_hessian":[1.0274961E3,7.5899524E2,2.6850082E2,3.733336E2,3.8566168E2,1.264734E2,1.4202744E2,3.075634E2,6.57702E1,2.7541113E2,1.1025054E2,5.2597393E1,7.387601E1,1.2371324E2,1.8314198E1,1.8171802E2,1.2584536E2,6.0867615E1,4.902592E0,2.5213348E2,2.3277647E1,1.078572E2,2.3933406E0,1.435177E0,5.1162216E1,5.0814083E1,2.3061922E1,7.540079E1,4.8312454E1,1.7244158E1,1.0700407E0,7.2019135E1,1.0969888E2,2.940613E1,9.643923E1,1.3005744E1,4.786187E1,3.2251987E0,1.6773934E0,6.6858406E1,1.8527509E2,3.5892267E0,1.9688421E1,5.519079E1,5.266641E1,4.6010303E1,5.1519113E0,4.7808353E1,3.0057304E0,1.0865751E1,1.2196171E1,7.122344E1,4.1773415E0,3.0347113E1,1.796534E1,1.6212498E1,1.0316596E0],"tree_param":{"num_deleted":"0","num_feature":"36","num_nodes":"57","size_leaf_vector":"1"}},{"base_weights":[-3.9843526E-3,-1.9692405E-1,5.3875595E-1,7.7687114E-2,-4.6206108E-1,6.526296E-1,1.4583679E-1,-5.273338E-1,1.7698675E-1,-5.434554E-1,4.3738407E-1,7.3842007E-1,1.6840558E-1,-7.640939E-1,4.7530448E-1,-1.0525144E0,3.8496074E-1,2.4365422E-1,-6.4327574E-1,-6.3084096E-1,2.0320883E-1,6.17964E-1,-7.2679496E-1,5.975566E-1,9.1550726E-1,4.4614837E-1,-5.2197045E-1,-1.02223E0,5.6069046E-1,-2.3988669E-1,6.1247927E-1,-6.1122872E-2,1.1816791E-2,4.1391682E-2,-4.3347158E-2,1.9250291E-3,2.412517E-2,-7.4325934E-2,-1.1264999E-2,-1.492581E-2,-4.1590523E-2,-2.156522E-2,2.8454402E-2,-4.969602E-3,4.252252E-2,-5.7963956E-2,1.7447164E-2,3.429965E-2,-4.7049038E-2,5.671947E-2,3.6881115E-2,3.34305E-2,-1.0669204E-2,-8.4987655E-2,1.672974E-2,-7.3924944E-2,1.5928227E-2,4.6050604E-2,-6.440151E-3,-6.4563975E-2,2.298922E-2,3.4023244E-2,-1.6016651E-2],"categories":[],"categories_nodes":[],"categories_segments":[],"categories_sizes":[],"default_left":[0,0,0,0,0,0,0,0,0,0,0,0,0,0,0,0,0,0,0,0,0,0,0,0,0,0,0,0,0,0,0,0,0,0,0,0,0,0,0,0,0,0,0,0,0,0,0,0,0,0,0,0,0,0,0,0,0,0,0,0,0,0,0],"id":23,"left_children":[1,3,5,7,9,11,13,15,17,19,21,23,25,27,29,31,33,35,37,39,41,43,45,47,49,51,53,55,57,59,61,-1,-1,-1,-1,-1,-1,-1,-1,-1,-1,-1,-1,-1,-1,-1,-1,-1,-1,-1,-1,-1,-1,-1,-1,-1,-1,-1,-1,-1,-1,-1,-1],"loss_changes":[1.0897313E2,5.5932945E1,1.211628E1,2.2801508E1,2.8843636E1,8.653908E0,1.9133884E1,2.6057602E1,1.7953106E1,2.3536453E1,7.382294E0,3.9234161E0,6.5795183E0,6.39618E0,4.71717E0,7.79018E0,1.1968979E1,1.4764893E1,8.383615E0,2.1218117E1,9.147343E0,4.936226E0,2.6786802E0,1.4618378E1,2.1814804E0,3.6848688E0,1.061342E1,9.405823E0,9.6893454E-1,6.6373625E0,2.7146692E0,0E0,0E0,0E0,0E0,0E0,0E0,0E0,0E0,0E0,0E0,0E0,0E0,0E0,0E0,0E0,0E0,0E0,0E0,0E0,0E0,0E0,0E0,0E0,0E0,0E0,0E0,0E0,0E0,0E0,0E0,0E0,0E0],"parents":[2147483647,0,0,1,1,2,2,3,3,4,4,5,5,6,6,7,7,8,8,9,9,10,10,11,11,12,12,13,13,14,14,15,15,16,16,17,17,18,18,19,19,20,20,21,21,22,22,23,23,24,24,25,25,26,26,27,27,28,28,29,29,30,30],"right_children":[2,4,6,8,10,12,14,16,18,20,22,24,26,28,30,32,34,36,38,40,42,44,46,48,50,52,54,56,58,60,62,-1,-1,-1,-1,-1,-1,-1,-1,-1,-1,-1,-1,-1,-1,-1,-1,-1,-1,-1,-1,-1,-1,-1,-1,-1,-1,-1,-1,-1,-1,-1,-1],"split_conditions":[7.328489E-1,-2.4579157E-1,8.530351E-1,-9.870034E-1,2.6835632E0,5.120184E-1,1.218638E-2,1E0,1.3882331E0,1.0569807E0,1.1274457E0,-3.7475413E-1,8.562363E-1,1.4052005E0,1.208416E0,1.0150911E0,2.2636686E-1,-2.240382E-1,-5.9074175E-1,-5.268027E-1,-1.3816324E-1,1.0150911E0,7.36726E-1,-4.0793267E-1,-6.455193E-1,1.1370443E0,1.09716766E-1,1E0,-5.362088E-1,8.526264E-1,2.1812992E0,-6.1122872E-2,1.1816791E-2,4.1391682E-2,-4.3347158E-2,1.9250291E-3,2.412517E-2,-7.4325934E-2,-1.1264999E-2,-1.492581E-2,-4.1590523E-2,-2.156522E-2,2.8454402E-2,-4.969602E-3,4.252252E-2,-5.7963956E-2,1.7447164E-2,3.429965E-2,-4.7049038E-2,5.671947E-2,3.6881115E-2,3.34305E-2,-1.0669204E-2,-8.4987655E-2,1.672974E-2,-7.3924944E-2,1.5928227E-2,4.6050604E-2,-6.440151E-3,-6.4563975E-2,2.298922E-2,3.4023244E-2,-1.6016651E-2],"split_indices":[16,9,1,15,12,11,15,34,1,6,1,11,9,13,16,13,1,6,2,1,3,13,6,11,1,6,5,34,0,15,7,0,0,0,0,0,0,0,0,0,0,0,0,0,0,0,0,0,0,0,0,0,0,0,0,0,0,0,0,0,0,0,0],"split_type":[0,0,0,0,0,0,0,0,0,0,0,0,0,0,0,0,0,0,0,0,0,0,0,0,0,0,0,0,0,0,0,0,0,0,0,0,0,0,0,0,0,0,0,0,0,0,0,0,0,0,0,0,0,0,0,0,0,0,0,0,0,0,0],"sum_hessian":[1.0386393E3,7.667155E2,2.7192383E2,3.76976E2,3.8973947E2,2.1031155E2,6.161228E1,5.2540775E1,3.2443524E2,3.5776013E2,3.1979338E1,1.7821251E2,3.2099052E1,1.602764E1,4.558464E1,3.324749E1,1.9293285E1,3.0069867E2,2.373656E1,3.2041556E2,3.734458E1,2.8091196E1,3.8881407E0,1.0169439E2,7.651812E1,2.3142452E1,8.956599E0,1.3605055E1,2.4225855E0,7.215624E0,3.8369015E1,2.9419815E1,3.8276753E0,1.4501856E1,4.791429E0,1.6238406E2,1.3831462E2,7.0192137E0,1.6717348E1,1.21683716E2,1.9873184E2,1.3592845E1,2.3751736E1,7.0158105E0,2.1075386E1,2.7178226E0,1.1703181E0,9.669066E1,5.00373E0,3.1895073E1,4.4623043E1,1.7295036E1,5.847416E0,3.356714E0,5.5998855E0,1.0074147E1,3.5309079E0,1.3705635E0,1.052022E0,2.5452843E0,4.6703396E0,3.60147E1,2.3543127E0],"tree_param":{"num_deleted":"0","num_feature":"36","num_nodes":"63","size_leaf_vector":"1"}},{"base_weights":[3.0097445E-3,-2.800949E-1,3.5889766E-1,-4.083064E-1,3.2362455E-1,2.8370744E-1,1.0042489E0,-1.0123228E-1,-6.107589E-1,-6.265288E-2,3.9430028E-1,3.581919E-1,-3.6461455E-1,1.0834577E0,-1.8311912E-1,-2.0505708E-1,6.42384E-1,-3.0496414E-3,-7.8248423E-1,1.0661521E0,2.2398716E-1,-5.400428E-1,4.1351572E-1,-6.479195E-1,6.708362E-1,1.1171762E0,-7.0500984E-3,-4.4359617E-2,3.7471354E-2,7.3554525E-3,-2.2232275E-2,4.4334143E-2,-6.0906496E-2,-2.044573E-2,4.4845413E-2,-4.3783423E-2,2.0337251E-3,7.917178E-2,1.2621449E-2,-7.4803764E-3,2.7270189E-2,-6.49384E-2,5.283281E-3,3.167869E-2,1.0731139E-2,-5.0870147E-2,4.222873E-3,-2.6061991E-3,6.262975E-2,5.7504307E-2,-2.9226122E-3],"categories":[],"categories_nodes":[],"categories_segments":[],"categories_sizes":[],"default_left":[0,0,0,0,0,0,0,0,0,0,0,0,0,0,0,0,0,0,0,0,0,0,0,0,0,0,0,0,0,0,0,0,0,0,0,0,0,0,0,0,0,0,0,0,0,0,0,0,0,0,0],"id":24,"left_children":[1,3,5,7,9,11,13,15,17,-1,19,21,23,25,27,29,31,33,35,37,39,41,43,45,47,49,-1,-1,-1,-1,-1,-1,-1,-1,-1,-1,-1,-1,-1,-1,-1,-1,-1,-1,-1,-1,-1,-1,-1,-1,-1],"loss_changes":[1.0356043E2,4.4443775E1,2.1812363E1,2.9320976E1,1.1730712E1,1.9893768E1,4.630707E0,1.4723116E1,2.9702713E1,0E0,1.0891547E1,1.8490307E1,1.295166E1,1.9875374E0,3.161627E0,1.41220045E1,1.1714362E1,2.3639963E1,1.7058548E1,7.7685966E0,9.551827E0,1.0798114E1,1.5044098E1,9.289499E0,4.127282E0,1.7405167E0,0E0,0E0,0E0,0E0,0E0,0E0,0E0,0E0,0E0,0E0,0E0,0E0,0E0,0E0,0E0,0E0,0E0,0E0,0E0,0E0,0E0,0E0,0E0,0E0,0E0],"parents":[2147483647,0,0,1,1,2,2,3,3,4,4,5,5,6,6,7,7,8,8,10,10,11,11,12,12,13,13,14,14,15,15,16,16,17,17,18,18,19,19,20,20,21,21,22,22,23,23,24,24,25,25],"right_children":[2,4,6,8,10,12,14,16,18,-1,20,22,24,26,28,30,32,34,36,38,40,42,44,46,48,50,-1,-1,-1,-1,-1,-1,-1,-1,-1,-1,-1,-1,-1,-1,-1,-1,-1,-1,-1,-1,-1,-1,-1,-1,-1],"split_conditions":[3.6627084E-1,1.1370443E0,2.6835632E0,-5.034486E-1,-1.3769133E0,1E0,3.956727E0,1.2694534E0,-1.0190895E0,-6.265288E-2,-5.887511E-1,-1.2033811E0,6.566623E-1,2.1966882E0,6.837179E-1,1E0,-6.065959E-1,3.5870868E-1,1.8269404E0,3.0421385E-1,2.098535E-2,9.818805E-1,-2.0957623E-1,1E0,1E0,2.024865E0,-7.0500984E-3,-4.4359617E-2,3.7471354E-2,7.3554525E-3,-2.2232275E-2,4.4334143E-2,-6.0906496E-2,-2.044573E-2,4.4845413E-2,-4.3783423E-2,2.0337251E-3,7.917178E-2,1.2621449E-2,-7.4803764E-3,2.7270189E-2,-6.49384E-2,5.283281E-3,3.167869E-2,1.0731139E-2,-5.0870147E-2,4.222873E-3,-2.6061991E-3,